elements: [Hf, Nb, Ta, Ti]
E0: [0, 0, 0, 0]
deltaSplineBins: 0.001
embeddings:
  0: {ndensity: 2, FS_parameters: [1, 1, 1, 0.5], npoti: FinnisSinclairShiftedScaled, rho_core_cutoff: 100000, drho_core_cutoff: 250}
  1: {ndensity: 2, FS_parameters: [1, 1, 1, 0.5], npoti: FinnisSinclairShiftedScaled, rho_core_cutoff: 100000, drho_core_cutoff: 250}
  2: {ndensity: 2, FS_parameters: [1, 1, 1, 0.5], npoti: FinnisSinclairShiftedScaled, rho_core_cutoff: 100000, drho_core_cutoff: 250}
  3: {ndensity: 2, FS_parameters: [1, 1, 1, 0.5], npoti: FinnisSinclairShiftedScaled, rho_core_cutoff: 100000, drho_core_cutoff: 250}
bonds:
  [0, 0]: {nradmax: 3, lmax: 2, nradbasemax: 15, radbasename: SBessel, radparameters: [5.25], radcoefficients: [[[-34.059584312176995, -31.241605382753491, 9.1689019148041044, 9.6743140470419018, -13.736457413594071, -2.5155723378970802, 4.8450564171997437, -13.764032109820377, 17.885026415646113, -6.9494511421303446, 1.8721310669343127, 1.0126178285274261, -1.8979927362244429, -0.37545268572010776, 0.19106951601979025], [4.0211312977968765, 1.1204133496622966, -3.4771377723049008, -1.269798938908316, 3.2268292283494597, 0.81024966277969479, -2.6045628094653717, 0.15637109977598179, 2.3527954635654194, -0.37267561164679758, -0.54962796716421181, 1.3913511599369279, -1.5331878178366012, 1.1183291758120824, 0.2261275990221438], [2.7439625306505611, -0.54744104858650366, -2.8029655406697294, 0.25780938052020819, 1.4709736560567723, -0.9305166546390814, -0.056690788779617474, 0.94155167540252604, -0.91465920542442025, -0.015849920587597693, 0.80392088531070616, -1.0694157693627606, 0.78630433525705168, -0.29590126754584528, 0.10241708856065332]], [[1.3818815511586775, 0.56705265463331578, -4.7955919621931011, -5.9697076670335001, -4.3503002185494699, -3.110339440030307, -0.64523852628312517, 1.7671452074580658, 0.43849153593819062, -1.5926054391839262, -1.5751604666735672, -0.34525924001696906, 1.5313671416921928, -1.4665165901972312, 0.45064099669249064], [1.118782434166004, 3.0547196423682066, -0.047414206932712449, -3.4253686179854737, -1.9856402073384447, 2.5024059522667113, 1.413612074177814, -4.0149127324339524, -3.9429153773341921, 1.4358675422641629, 2.7531960427974722, -0.36193478529089601, 0.09471299935324623, 2.910586817956256, -0.94089111852305507], [-0.030821229359882487, 0.6421446732365127, -0.46851002386733859, 0.07584365132601073, 0.22838585862837113, -0.59253869900652645, -0.91876917897542154, -0.11767273133056119, 0.22655571357110402, -0.394027836737668, -0.65455435844645471, -0.34474558798788396, -0.17157777265866206, -0.053533105717784184, -0.095224262891108455]], [[0.058120689733984841, 0.70727471702172873, 2.0314307663781159, -0.2378274485383246, -1.2800292299085159, -0.098454356170411053, 0.87820217511816601, -0.13768520379313809, -0.38134170697100755, 0.51484588530741104, -0.20850937462931274, -0.60623883851646543, 0.98174974109067992, -1.083237459957981, 0.71715032655901478], [0.65509122543173037, 0.68932034279325549, 1.4144343747557271, 1.0738469622419615, 1.3110657007411279, -0.32105077848249541, -1.7253349531611655, -1.1525786977520378, 0.085056342554569661, 0.86620293365326329, 0.81598008723059323, 0.028029799908857258, 0.2921762956618551, 0.62159709171981403, 0.7383172820188868], [-0.25331148455843572, -0.019636107756790793, 1.1456754750934759, -0.12284126628240044, 0.47170978647151729, 1.3218367789433147, 0.54169315472619861, -0.025383638939863607, 1.4312296968407872, 1.9292019746311493, 0.4142373737213812, 0.059078014593048921, 0.32432908106690755, -0.52006265369993487, 0.5561275613513158]]], prehc: 1000, lambdahc: 1, rcut: 6, dcut: 0.01, rcut_in: 1.45, dcut_in: 0.10000000000000001, inner_cutoff_type: distance}
  [0, 1]: {nradmax: 3, lmax: 2, nradbasemax: 10, radbasename: SBessel, radparameters: [5.25], radcoefficients: [[[4.6199725681988655, -0.27658278141307885, -1.7762382543526958, 3.1593951290907798, -3.3997787294314397, 2.568988638468424, -1.2079281587532802, 0.34445216991298239, 0.031971306017402452, -0.10663745311584041], [-0.039660903910519851, 0.059039067401922975, -0.071695607861762031, 0.074239897389561951, -0.066818117756482984, 0.050272623105443712, -0.031281258670608804, 0.015417593964343479, -0.0063505771052296232, 0.0017412044157963868], [-0.35914168363090226, 0.46653186090229587, -0.46801464052847325, 0.38396128948928149, -0.26617509153400987, 0.15995025187029877, -0.080285810750576864, 0.032700410223275043, -0.0098481949272427281, 0.0019002083995919004]], [[5.237401545346076, 17.987877610616327, -0.27926109406284644, -16.176219204499553, 8.8056533369676391, 7.5336867410404569, -10.848788706499823, 8.3544777815525038, -6.8903975572881349, 0.15079117465598807], [-4.7880842223642874, -0.65772440273340782, 4.4006567561369003, 0.54439243789969294, -4.5532841146102729, -0.39163116855792035, 2.9790237987485422, -3.1728680089393433, 0.71091428581380212, 0.47862084771460217], [-4.8496304828844625, 0.82829550415594533, 6.347940804767898, -0.23611705672025157, -4.7680415449385354, 1.0392481627085965, 0.27258228917529187, -1.4139259094892647, 1.0131119198821599, -0.37184081377355777]], [[-0.61143819306852576, -0.99595571514557335, 0.33560628097614592, -0.51032599765796793, 0.26236036770295351, -0.60872577330777855, 0.11519388523476828, 0.3324567077410332, -0.30027115559669609, 0.069105152857068877], [-0.70666564809803345, -0.67971150938046621, 2.4997426117380925, 3.7691053103665824, 1.634400967183542, -2.6039265475995252, -1.5776313217386342, 2.4569914327806774, 0.074590269266285453, -0.25656561760986085], [-0.95253154827428432, 1.4602235274916759, 4.0555870783684966, -0.29396285826306329, -0.94394568824003144, 1.7000024636594386, -0.26961071706712275, -0.64319143217166874, 3.180917395346766, -0.21228626017492738]]], prehc: 1000, lambdahc: 1, rcut: 6, dcut: 0.01, rcut_in: 1.45, dcut_in: 0.10000000000000001, inner_cutoff_type: distance}
  [0, 2]: {nradmax: 3, lmax: 2, nradbasemax: 10, radbasename: SBessel, radparameters: [5.25], radcoefficients: [[[8.2665460503440542, -1.5203982927324919, -2.0159590250070125, 4.989195536016469, -5.2525558740573777, 3.6937703329227842, -1.5266737405398589, 0.28367864505599405, 0.1830310457072219, 0.084979609879553247], [-0.18155905728095256, 0.23346463238316076, -0.23517505249645665, 0.20919565810326671, -0.16598735175049462, 0.10743919773506327, -0.057231660129479334, 0.024370967083194143, -0.0092291637641550191, 0.0025987780817730102], [1.3334970911517297, -0.54165565328986964, -0.85647800218295711, -0.12624620416419099, 1.4239864753923426, -1.0706231201660246, 0.74834981103628451, -0.48610161118890549, 0.30777611585895631, 0.02524456451502511]], [[1.2076507241066137, 2.3222438423989313, -12.041949743508573, -16.19824300516898, 6.3950190597221477, 9.7133858227011984, -5.6519065586493333, 9.0747997307671149, -17.154228437729962, -0.23093037328798866], [-6.3020898905600751, -0.29101813662808335, 6.5897034274401056, -0.073549950256081006, -6.6495189990481602, 0.53500783236292759, 3.8620382547048284, -4.9665134891777445, 0.81684561404364608, 0.88973914819468558], [-2.7585780517971008, 1.1119794844205944, 2.2120353474853536, -1.8080870615923728, -0.19533751434768257, 3.6482225225409386, -1.3856356174623015, -0.60080882416256864, 4.5064308864039671, -0.64328619575758628]], [[-2.4894506097068225, -3.7917267705261826, 4.5385551737942897, 4.9733174527199751, -5.8801863504623313, -2.9083249993061635, -2.3407589310508543, 3.2469440821704851, 3.4134681335370893, 0.16209927901478119], [-2.2832684306430866, 0.71859447229653883, 6.1575845513102578, 2.2277541544125059, -1.7696836137164049, -1.4621057729481357, -1.0848266819198964, 4.4094758328904158, -0.56782746401754025, -0.62040069335869552], [2.3147503485259868, 0.52877759512086697, -2.1469459828132131, -1.0599042398000191, 2.5175542227914049, 0.88573625689636515, -0.72355179601039432, 1.1313974745829858, 0.76195679786540083, -0.16024669579081091]]], prehc: 1000, lambdahc: 1, rcut: 6, dcut: 0.01, rcut_in: 1.45, dcut_in: 0.10000000000000001, inner_cutoff_type: distance}
  [0, 3]: {nradmax: 3, lmax: 2, nradbasemax: 10, radbasename: SBessel, radparameters: [5.25], radcoefficients: [[[6.808888478392312, -0.9968908804297929, -0.0422517125055187, 0.333625199748945, -1.0433899772621507, 1.4493745248875589, -0.066914803122759312, -0.078521191929184775, -0.089803346510553939, -0.0756794318013089], [-0.013558781933003064, 0.023197101432086253, -0.030204028225108061, 0.030113421311396743, -0.024201034923354001, 0.015821500576855128, -0.0079889044984810427, 0.0030044179076888231, -0.0012715695848704092, 0.0004103327229283364], [0.17049252526488248, -0.2085564101162275, 0.19782293721101241, -0.18731386103362774, 0.15583779112009707, -0.10125474711297082, 0.052720071288093001, -0.022426869271065967, 0.0078828288111496454, -0.0014870721685202176]], [[5.0799656920616414, 17.98808589022347, -4.8664427303216717, -7.3991064417502148, 4.317109590575245, 2.6282745562013021, 6.045860572015445, -3.5366536139199538, -1.9917676727954119, -0.45191804866602453], [-3.1843937427231026, -2.9849331387131732, 5.9331669227099306, 7.4644769188170423, -5.8581309867722267, -3.7508555412816209, 5.258486808735749, -3.8863533611274881, -0.2741544169042312, 1.404218996988559], [-1.765013117883403, -1.520798395881765, 7.3920656085589371, 2.2899261067883598, -7.8490049172843142, 4.0089841133828221, 3.1668550814744019, -2.4197460535777702, -0.37958775016275759, 0.5977579352398853]], [[0.011609717575415018, -2.6581098255052602, 3.6900146217740502, 6.9548471713968603, 3.6205459924513512, 0.30219075431781672, -0.98977481806245848, -2.6272321853948086, 5.1853507467630848, 0.68748738652100805], [-2.5326667884492426, -0.74981573312907268, 1.4454076537580622, 4.3496196907940412, 3.5875959415047869, -5.5768146750088796, -0.7333494273923109, 3.5558973123332316, -0.99648727744663967, 0.3097225524159915], [0.69276939732414389, 1.8394745065793725, -1.4155101699894062, -3.9150536318873534, 2.9217893604016814, 3.0133710373714138, -0.0086318828819938222, 4.6582563530940702, -2.7323813450137071, 0.53563413079790789]]], prehc: 1000, lambdahc: 1, rcut: 6, dcut: 0.01, rcut_in: 1.45, dcut_in: 0.10000000000000001, inner_cutoff_type: distance}
  [1, 0]: {nradmax: 3, lmax: 2, nradbasemax: 10, radbasename: SBessel, radparameters: [5.25], radcoefficients: [[[4.6199725681988655, -0.27658278141307885, -1.7762382543526958, 3.1593951290907798, -3.3997787294314397, 2.568988638468424, -1.2079281587532802, 0.34445216991298239, 0.031971306017402452, -0.10663745311584041], [-0.039660903910519851, 0.059039067401922975, -0.071695607861762031, 0.074239897389561951, -0.066818117756482984, 0.050272623105443712, -0.031281258670608804, 0.015417593964343479, -0.0063505771052296232, 0.0017412044157963868], [-0.35914168363090226, 0.46653186090229587, -0.46801464052847325, 0.38396128948928149, -0.26617509153400987, 0.15995025187029877, -0.080285810750576864, 0.032700410223275043, -0.0098481949272427281, 0.0019002083995919004]], [[5.237401545346076, 17.987877610616327, -0.27926109406284644, -16.176219204499553, 8.8056533369676391, 7.5336867410404569, -10.848788706499823, 8.3544777815525038, -6.8903975572881349, 0.15079117465598807], [-4.7880842223642874, -0.65772440273340782, 4.4006567561369003, 0.54439243789969294, -4.5532841146102729, -0.39163116855792035, 2.9790237987485422, -3.1728680089393433, 0.71091428581380212, 0.47862084771460217], [-4.8496304828844625, 0.82829550415594533, 6.347940804767898, -0.23611705672025157, -4.7680415449385354, 1.0392481627085965, 0.27258228917529187, -1.4139259094892647, 1.0131119198821599, -0.37184081377355777]], [[-0.61143819306852576, -0.99595571514557335, 0.33560628097614592, -0.51032599765796793, 0.26236036770295351, -0.60872577330777855, 0.11519388523476828, 0.3324567077410332, -0.30027115559669609, 0.069105152857068877], [-0.70666564809803345, -0.67971150938046621, 2.4997426117380925, 3.7691053103665824, 1.634400967183542, -2.6039265475995252, -1.5776313217386342, 2.4569914327806774, 0.074590269266285453, -0.25656561760986085], [-0.95253154827428432, 1.4602235274916759, 4.0555870783684966, -0.29396285826306329, -0.94394568824003144, 1.7000024636594386, -0.26961071706712275, -0.64319143217166874, 3.180917395346766, -0.21228626017492738]]], prehc: 1000, lambdahc: 1, rcut: 6, dcut: 0.01, rcut_in: 1.45, dcut_in: 0.10000000000000001, inner_cutoff_type: distance}
  [1, 1]: {nradmax: 3, lmax: 2, nradbasemax: 15, radbasename: SBessel, radparameters: [5.25], radcoefficients: [[[6.8197061650721977, -2.0990157040740618, 0.055367561260007796, 0.065818704929428484, 0.55243783380206313, -2.1491954206549893, 3.921009092851869, -3.8685787617436129, 2.9764807322489766, -2.3602629733943337, 1.8958950954390068, -1.6943862774901604, 1.2901411081778842, -0.57106613277096352, 0.35600134923069199], [5.1795667138248307, 0.22761756731355118, -2.9937308616308584, 3.1661442195644685, 3.0274725541146763, -2.6010419797096969, 0.32262384759753554, 2.2569403610710466, -1.402867399661639, -0.75764323933638822, 0.07787468058539701, -0.29371439240788089, 0.78978467543710018, -0.21882077662873081, 0.15095413575053401], [4.98855130057302, -1.8044329230095648, -6.0556062299400644, 2.3415263803089461, 3.8846627932069424, -2.7566004550726926, -0.21339557168847342, 1.7843903557766627, -2.0126715000931386, 0.72301598382050314, 1.2446388469494065, -2.3098313416071283, 2.0376902953481641, -1.1556020954405555, 0.33557886642121271]], [[1.877115622364695, 4.2279389262926532, 0.65015997432825301, -2.9512319604329607, -1.2821323826655604, 2.7152981176639455, 1.4776253628455929, -1.9542717487482868, -0.24246337535539353, 2.0762142506078867, -1.1521166181636178, -1.6006795392771616, 2.723902439158548, -1.5742752835243117, 1.8050117443644156], [0.091260377967198686, 1.3876016934923878, 2.4116810760950842, 4.9068849339021732, 1.7471821679703214, -4.8970463721536541, -2.557390007006211, 5.7687509871881932, 3.645762202403982, -3.9588294302536124, -2.8570040132030279, -0.18628071042915584, -0.48491212332547651, 1.0051332159460955, -0.14369692538189743], [-0.22923554039050184, 0.11586797723091014, 0.22320499134780053, 0.80327918793913078, -1.6599174212990342, -1.1689970681642632, 1.7440416098043026, -0.39139258017999445, -1.9810822310128562, 1.0760892787254592, 0.4100317202183435, -0.88918383055803707, 1.4881261977575002, -1.1955539494246719, 0.46566749147150205]], [[-0.71136852186946831, -0.43886722135172523, 0.87904986850007305, -1.1944410141732416, -1.6385823700597544, -0.42374487375629089, 0.63629883137976351, 0.82585273700243333, -0.064219710067965424, -1.4380153931156694, -0.67697153652932407, 0.60120316988131839, -0.71674439919469157, 0.44285317987489997, -0.32047557255044179], [-1.0943011376221046, -1.5248216414633107, -1.0318636846789873, -2.8813029208957879, -1.0793832883735162, 1.5577960256601928, -0.078580074753139786, -2.2465176951155312, 0.27695073270576692, 1.9916789164130568, -0.26545637552843226, -0.47480442029550696, 0.47729333561337695, -0.80268488598757581, 0.18097220588756682], [-1.505581225296299, -1.1669533844721041, 2.0184734447969244, 1.1726315451103211, -0.93009941491512771, -1.8004819688998346, -0.74410713212293422, -0.1970157865369806, -0.70754951480443895, -0.19372161854550357, 1.0977124751246141, 0.56618886902192711, -0.73601012947934763, 0.18094520855360391, -0.28584623885094013]]], prehc: 1000, lambdahc: 1, rcut: 6, dcut: 0.01, rcut_in: 1.45, dcut_in: 0.10000000000000001, inner_cutoff_type: distance}
  [1, 2]: {nradmax: 3, lmax: 2, nradbasemax: 10, radbasename: SBessel, radparameters: [5.25], radcoefficients: [[[13.65102798794635, -4.6306576757582585, -2.4760219941524695, 8.6720954346598784, -11.835785579932084, 9.8669883919193087, -4.9229708982640865, 1.6766795913445844, -0.17022173136847413, -0.35085618583080225], [2.4391549874644047, -2.96673622963137, 2.7147804427358513, -2.0590750576693875, 1.3099281938763052, -0.62417611262653627, 0.18048845033448341, 0.013455545838361685, -0.046784858097441026, 0.011623445354482341], [0.41335237452542412, -0.50841050873814975, 0.46907222423687278, -0.38806066213571005, 0.27999910511772286, -0.15402919639079701, 0.067225429448953919, -0.021623796437371522, 0.0075967557803695764, -0.0015096303834783401]], [[-1.9463606854157036, -4.3194533713239425, -4.4288998780373356, 3.7548861742500237, 2.7586629667414266, -7.8609525926058117, 3.6430409831078459, -0.064274885477380125, -0.065241316476482319, -0.39142404339857706], [-5.6478476422991255, 0.022764368024920427, 5.1057550122030211, -3.0056783947432715, -9.333234466509289, 3.1184646343052109, 7.8514639805261535, -12.143847720270767, 6.5666474157930779, 0.91982379211985288], [4.6274566897042559, -2.0427139893777273, -7.8282329544043794, 2.0971741718636112, 5.8482495330383983, -1.4331947033483285, -4.2595474973469116, 3.4535568523400353, -1.1382601473162237, 0.34284320804672913]], [[1.9057057527630632, -14.184141973130414, -12.593667293661053, 13.972258989264192, 1.6377095510554576, -16.067453190023567, 7.2565146969986838, 0.66237100203236488, -0.26058658982689381, -1.2136661288301538], [-2.1629907325956448, -1.5700997593561123, 5.656326239325228, 4.8311962972566, -0.9191999712083373, -3.1398885526557865, -1.1646345085952274, 6.9382222460240977, -7.0926377357394248, 0.83635750732508607], [-1.9808868237269819, -1.8647505937172075, 2.5697217606486871, 2.1681557866590531, -2.7494888157971986, -4.5096711314898661, 0.015364692557612197, -0.28438110490348634, -4.2159470937401853, 2.3591005505925948]]], prehc: 1000, lambdahc: 1, rcut: 6, dcut: 0.01, rcut_in: 1.45, dcut_in: 0.10000000000000001, inner_cutoff_type: distance}
  [1, 3]: {nradmax: 3, lmax: 2, nradbasemax: 10, radbasename: SBessel, radparameters: [5.25], radcoefficients: [[[7.2491154853619344, 1.6395789013870619, -4.0030850384500649, 4.8940293417368244, -5.5462305737447402, 5.2585891465197285, -2.3628404828191574, 0.80349096770881412, -0.33912897734914182, -0.047219573057166682], [2.9663844985463763, -3.5775488500041113, 3.2432162762923844, -2.4667245574551817, 1.5702020887502106, -0.72363830262140127, 0.18850133614062137, 0.022524776746777431, -0.056228629523581576, 0.019640801600505457], [5.2364315288436094, -3.3865558511438003, -0.49030716917065342, 1.3565733046646002, -0.81426801879638488, 1.2927570596147575, -1.3088220579629799, 0.97012641066712446, -0.42257380053306964, 0.17736073532936986]], [[7.1621033783062815, 15.928260919967244, -1.3176186327915449, -6.2551822851031655, 3.2120609986463569, 5.3542698616723809, -0.33431641386886463, -0.78627621903823386, -1.4950311138260959, 0.71421953468787869], [3.7085797780589931, 2.7921474652261393, -6.6216013074088131, -5.2950986400269642, 4.8068651604460637, 2.8782697635955836, -3.1774223491799485, -0.71975230016227076, 1.058030532657918, 0.4445226111557079], [-7.1778236021860158, -1.0799298218227453, 7.9682947102674984, -3.2178563372809639, -4.5194917111460917, 9.2497463155079753, -4.0704587780094723, -0.33228328808775182, 1.6512475975327565, -0.35105525737021737]], [[1.1881162490280646, -2.8241062754035613, 0.36198964494229924, 1.0243283808183519, -1.1716760586925052, -0.85968579481511909, 0.013426215887301113, 0.45592940704631862, -0.18233219591900263, -0.077875962958492154], [0.66337500966236507, -2.0498312037940711, 0.77835643948484168, 5.5516029256293882, 3.8136830395887054, -4.2975796664164596, -3.3698840964003614, 7.7628802113343722, -4.8434054371710049, -0.035605528693048748], [5.1355787345288579, 5.1683279045640296, -5.4451596961056694, -1.4265470673276945, 6.0873026174366789, -8.8686962993385077, -1.8830616353610323, 9.4489232070030162, -5.8905174437450336, 0.34769174276793124]]], prehc: 1000, lambdahc: 1, rcut: 6, dcut: 0.01, rcut_in: 1.45, dcut_in: 0.10000000000000001, inner_cutoff_type: distance}
  [2, 0]: {nradmax: 3, lmax: 2, nradbasemax: 10, radbasename: SBessel, radparameters: [5.25], radcoefficients: [[[8.2665460503440542, -1.5203982927324919, -2.0159590250070125, 4.989195536016469, -5.2525558740573777, 3.6937703329227842, -1.5266737405398589, 0.28367864505599405, 0.1830310457072219, 0.084979609879553247], [-0.18155905728095256, 0.23346463238316076, -0.23517505249645665, 0.20919565810326671, -0.16598735175049462, 0.10743919773506327, -0.057231660129479334, 0.024370967083194143, -0.0092291637641550191, 0.0025987780817730102], [1.3334970911517297, -0.54165565328986964, -0.85647800218295711, -0.12624620416419099, 1.4239864753923426, -1.0706231201660246, 0.74834981103628451, -0.48610161118890549, 0.30777611585895631, 0.02524456451502511]], [[1.2076507241066137, 2.3222438423989313, -12.041949743508573, -16.19824300516898, 6.3950190597221477, 9.7133858227011984, -5.6519065586493333, 9.0747997307671149, -17.154228437729962, -0.23093037328798866], [-6.3020898905600751, -0.29101813662808335, 6.5897034274401056, -0.073549950256081006, -6.6495189990481602, 0.53500783236292759, 3.8620382547048284, -4.9665134891777445, 0.81684561404364608, 0.88973914819468558], [-2.7585780517971008, 1.1119794844205944, 2.2120353474853536, -1.8080870615923728, -0.19533751434768257, 3.6482225225409386, -1.3856356174623015, -0.60080882416256864, 4.5064308864039671, -0.64328619575758628]], [[-2.4894506097068225, -3.7917267705261826, 4.5385551737942897, 4.9733174527199751, -5.8801863504623313, -2.9083249993061635, -2.3407589310508543, 3.2469440821704851, 3.4134681335370893, 0.16209927901478119], [-2.2832684306430866, 0.71859447229653883, 6.1575845513102578, 2.2277541544125059, -1.7696836137164049, -1.4621057729481357, -1.0848266819198964, 4.4094758328904158, -0.56782746401754025, -0.62040069335869552], [2.3147503485259868, 0.52877759512086697, -2.1469459828132131, -1.0599042398000191, 2.5175542227914049, 0.88573625689636515, -0.72355179601039432, 1.1313974745829858, 0.76195679786540083, -0.16024669579081091]]], prehc: 1000, lambdahc: 1, rcut: 6, dcut: 0.01, rcut_in: 1.45, dcut_in: 0.10000000000000001, inner_cutoff_type: distance}
  [2, 1]: {nradmax: 3, lmax: 2, nradbasemax: 10, radbasename: SBessel, radparameters: [5.25], radcoefficients: [[[13.65102798794635, -4.6306576757582585, -2.4760219941524695, 8.6720954346598784, -11.835785579932084, 9.8669883919193087, -4.9229708982640865, 1.6766795913445844, -0.17022173136847413, -0.35085618583080225], [2.4391549874644047, -2.96673622963137, 2.7147804427358513, -2.0590750576693875, 1.3099281938763052, -0.62417611262653627, 0.18048845033448341, 0.013455545838361685, -0.046784858097441026, 0.011623445354482341], [0.41335237452542412, -0.50841050873814975, 0.46907222423687278, -0.38806066213571005, 0.27999910511772286, -0.15402919639079701, 0.067225429448953919, -0.021623796437371522, 0.0075967557803695764, -0.0015096303834783401]], [[-1.9463606854157036, -4.3194533713239425, -4.4288998780373356, 3.7548861742500237, 2.7586629667414266, -7.8609525926058117, 3.6430409831078459, -0.064274885477380125, -0.065241316476482319, -0.39142404339857706], [-5.6478476422991255, 0.022764368024920427, 5.1057550122030211, -3.0056783947432715, -9.333234466509289, 3.1184646343052109, 7.8514639805261535, -12.143847720270767, 6.5666474157930779, 0.91982379211985288], [4.6274566897042559, -2.0427139893777273, -7.8282329544043794, 2.0971741718636112, 5.8482495330383983, -1.4331947033483285, -4.2595474973469116, 3.4535568523400353, -1.1382601473162237, 0.34284320804672913]], [[1.9057057527630632, -14.184141973130414, -12.593667293661053, 13.972258989264192, 1.6377095510554576, -16.067453190023567, 7.2565146969986838, 0.66237100203236488, -0.26058658982689381, -1.2136661288301538], [-2.1629907325956448, -1.5700997593561123, 5.656326239325228, 4.8311962972566, -0.9191999712083373, -3.1398885526557865, -1.1646345085952274, 6.9382222460240977, -7.0926377357394248, 0.83635750732508607], [-1.9808868237269819, -1.8647505937172075, 2.5697217606486871, 2.1681557866590531, -2.7494888157971986, -4.5096711314898661, 0.015364692557612197, -0.28438110490348634, -4.2159470937401853, 2.3591005505925948]]], prehc: 1000, lambdahc: 1, rcut: 6, dcut: 0.01, rcut_in: 1.45, dcut_in: 0.10000000000000001, inner_cutoff_type: distance}
  [2, 2]: {nradmax: 3, lmax: 2, nradbasemax: 15, radbasename: SBessel, radparameters: [5.25], radcoefficients: [[[24.931700081315959, 8.0380449677107411, -9.3802819582581076, 7.0788663013586621, -3.0331709849851873, -3.7566260795701862, 12.613453396409319, -11.926401749654463, 4.6360772547148237, 1.6002276926986947, -2.6652173809776349, -0.78166954895248186, 2.4103580066817814, -2.2568683040781945, 1.7284342536850663], [-3.8480210913342794, 0.32810617966637945, 5.5485702191467192, -1.5908966834341864, -4.8529945284446203, 1.0427632597794019, 1.7168537162270008, -1.8365006509578468, -0.80890495930280126, 1.7023584029731955, 0.49364144053988568, -1.1244328464355799, 0.49120171608518493, -0.37022621435117342, 0.12056441839479479], [6.4301818092175083, -1.308374707575684, -5.3243553666246717, 2.8908809522360057, 2.0280814552412747, -2.3929955290851965, 1.3473889643616273, 0.39435314511801961, -1.4166667622703715, 1.2799652166902848, -0.34994995638529341, -0.57949408317547957, 0.76849171460213861, -0.50937538327731802, 0.22047108886206565]], [[-0.53732290889912981, -0.58082916930862227, 0.73397675107031257, 4.5795085799593478, 2.5650484666769664, -1.4959955085390244, -0.59945220017778589, -0.29380301711776791, -2.1284561052820559, 1.1994329136131821, 4.1814482718709982, 0.24114915401710552, -1.2161429744533303, 0.11019248404525007, -0.072453770995715469], [2.0463389325756025, 0.28349664060665664, -4.1307568819020357, 0.90959802464488337, 4.5129523070739168, -1.022182532389226, -2.0291127561112523, 2.3963320141069868, 0.47807499416918464, -1.8755524589922408, 0.16919716792719314, 0.29077860751590479, -0.030743797202519511, 0.19330149751607784, -0.093575836836588031], [1.4016327530842287, 2.353524312365233, -0.60620137456803902, -0.89438269227626122, 0.40834768285275097, 0.093875853384342248, -0.043279164849335, 1.1137769801182662, 0.64924204207609648, -0.22411459546310958, -0.36556128879283972, -0.63488089511979406, 0.04582545398623894, 0.01039367462584893, 0.27950623978823808]], [[1.0924174005869935, -1.2599092056476091, -1.9229591527054664, -0.29526695770938399, -0.46033796705966756, -2.574439590137457, 0.65045760207635495, 2.7207530221894252, -0.84404139124878064, -1.4313001851593272, 0.069371940204429716, -1.0813560684506001, 0.75075844779929435, 0.099126921603375731, -0.28164896463553002], [-0.84094117234777876, 0.28551897831662798, 1.1255765914272593, -2.4269237661725556, -0.98449166634626373, 2.1062664191667411, -0.11415111134386853, -1.7431499558783199, 1.0441798238643252, 0.86296330000465582, -0.59079637008245978, 0.84224010709210106, -0.54027440529008741, -0.023180722513865139, 0.16046742114270976], [-1.1303503738506586, -0.77103867499570455, 2.7636048412132164, 1.227238143518244, -2.3099980198543473, -1.446456942219144, 1.1057663779692413, -0.81394125997737332, -1.4237791576866783, 0.97572718588423224, 0.27990486047029273, -0.44602524141012356, 0.59663555548921232, -0.58832913382087693, 0.20213647217145458]]], prehc: 1000, lambdahc: 1, rcut: 6, dcut: 0.01, rcut_in: 1.45, dcut_in: 0.10000000000000001, inner_cutoff_type: distance}
  [2, 3]: {nradmax: 3, lmax: 2, nradbasemax: 10, radbasename: SBessel, radparameters: [5.25], radcoefficients: [[[7.5553229219214462, 0.83194089360356649, -3.0457627587305343, 3.5764663690939038, -3.7884994271712986, 2.8880993867322284, -0.15153915492771863, -0.72860483883941574, 0.56413199208814546, -0.22477675333054065], [9.8522501824006294, -0.98622519652735974, -11.23963031519054, 2.1680098584499619, 8.5437066737768284, -2.9702692728738636, -2.3142943896123755, 3.0217880641440349, -1.4523793027386891, -0.017074919053117393], [-0.7792123132433304, 0.54001166901129338, 0.10004218298289946, 0.19871077631346606, -0.59960413513985478, 0.39422135708646283, -0.25829361151727248, 0.1470715261375421, -0.054541290676455911, 0.013105254758037676]], [[-0.36864761860137757, 7.8890621400315943, 3.6527165646640638, -4.9999741573649867, 1.6735506502171633, 1.7029282631386542, 3.0337336402165866, -3.2979066113136835, 0.11640862709429819, 0.071144837922359469], [-9.0278083513762066, 0.92398884659742753, 10.285779511669785, -0.28588395845608272, -4.0895796708677272, 2.1613221367780326, -3.7173861487975359, 3.979371997050714, -0.14999694407158273, -0.37303394372217458], [-5.3090060658501939, 1.3485053587075795, 6.2167184014551227, -2.0169202655070575, -3.7931788714822789, 2.5757960711042469, -1.9700467303241853, 1.2868972793648659, -0.51523327782000472, 0.13033001925486049]], [[-4.7473044349283695, -16.311629399320402, -4.2789031629900149, 6.890196429151259, -0.79916213179296769, -5.4001821424713041, -5.666651284216992, 6.9533234028699633, -0.83230700098334254, 0.02025085033489538], [-3.1658643382855143, -0.65461230962537165, 4.6022362064816047, 4.7349917975286502, 2.4759425144302898, -4.4918584644509103, -3.08715669470855, 6.3319410832091698, -1.45200732779536, -0.69702899510963168], [-1.3800430873858345, 0.12460355972121068, 3.2340696516338538, 0.24935680343699582, -1.8875998286489746, -1.5545082107845629, -0.88525639581621662, 1.3417829038787286, -2.5035589554323923, 1.2307291882710143]]], prehc: 1000, lambdahc: 1, rcut: 6, dcut: 0.01, rcut_in: 1.45, dcut_in: 0.10000000000000001, inner_cutoff_type: distance}
  [3, 0]: {nradmax: 3, lmax: 2, nradbasemax: 10, radbasename: SBessel, radparameters: [5.25], radcoefficients: [[[6.808888478392312, -0.9968908804297929, -0.0422517125055187, 0.333625199748945, -1.0433899772621507, 1.4493745248875589, -0.066914803122759312, -0.078521191929184775, -0.089803346510553939, -0.0756794318013089], [-0.013558781933003064, 0.023197101432086253, -0.030204028225108061, 0.030113421311396743, -0.024201034923354001, 0.015821500576855128, -0.0079889044984810427, 0.0030044179076888231, -0.0012715695848704092, 0.0004103327229283364], [0.17049252526488248, -0.2085564101162275, 0.19782293721101241, -0.18731386103362774, 0.15583779112009707, -0.10125474711297082, 0.052720071288093001, -0.022426869271065967, 0.0078828288111496454, -0.0014870721685202176]], [[5.0799656920616414, 17.98808589022347, -4.8664427303216717, -7.3991064417502148, 4.317109590575245, 2.6282745562013021, 6.045860572015445, -3.5366536139199538, -1.9917676727954119, -0.45191804866602453], [-3.1843937427231026, -2.9849331387131732, 5.9331669227099306, 7.4644769188170423, -5.8581309867722267, -3.7508555412816209, 5.258486808735749, -3.8863533611274881, -0.2741544169042312, 1.404218996988559], [-1.765013117883403, -1.520798395881765, 7.3920656085589371, 2.2899261067883598, -7.8490049172843142, 4.0089841133828221, 3.1668550814744019, -2.4197460535777702, -0.37958775016275759, 0.5977579352398853]], [[0.011609717575415018, -2.6581098255052602, 3.6900146217740502, 6.9548471713968603, 3.6205459924513512, 0.30219075431781672, -0.98977481806245848, -2.6272321853948086, 5.1853507467630848, 0.68748738652100805], [-2.5326667884492426, -0.74981573312907268, 1.4454076537580622, 4.3496196907940412, 3.5875959415047869, -5.5768146750088796, -0.7333494273923109, 3.5558973123332316, -0.99648727744663967, 0.3097225524159915], [0.69276939732414389, 1.8394745065793725, -1.4155101699894062, -3.9150536318873534, 2.9217893604016814, 3.0133710373714138, -0.0086318828819938222, 4.6582563530940702, -2.7323813450137071, 0.53563413079790789]]], prehc: 1000, lambdahc: 1, rcut: 6, dcut: 0.01, rcut_in: 1.45, dcut_in: 0.10000000000000001, inner_cutoff_type: distance}
  [3, 1]: {nradmax: 3, lmax: 2, nradbasemax: 10, radbasename: SBessel, radparameters: [5.25], radcoefficients: [[[7.2491154853619344, 1.6395789013870619, -4.0030850384500649, 4.8940293417368244, -5.5462305737447402, 5.2585891465197285, -2.3628404828191574, 0.80349096770881412, -0.33912897734914182, -0.047219573057166682], [2.9663844985463763, -3.5775488500041113, 3.2432162762923844, -2.4667245574551817, 1.5702020887502106, -0.72363830262140127, 0.18850133614062137, 0.022524776746777431, -0.056228629523581576, 0.019640801600505457], [5.2364315288436094, -3.3865558511438003, -0.49030716917065342, 1.3565733046646002, -0.81426801879638488, 1.2927570596147575, -1.3088220579629799, 0.97012641066712446, -0.42257380053306964, 0.17736073532936986]], [[7.1621033783062815, 15.928260919967244, -1.3176186327915449, -6.2551822851031655, 3.2120609986463569, 5.3542698616723809, -0.33431641386886463, -0.78627621903823386, -1.4950311138260959, 0.71421953468787869], [3.7085797780589931, 2.7921474652261393, -6.6216013074088131, -5.2950986400269642, 4.8068651604460637, 2.8782697635955836, -3.1774223491799485, -0.71975230016227076, 1.058030532657918, 0.4445226111557079], [-7.1778236021860158, -1.0799298218227453, 7.9682947102674984, -3.2178563372809639, -4.5194917111460917, 9.2497463155079753, -4.0704587780094723, -0.33228328808775182, 1.6512475975327565, -0.35105525737021737]], [[1.1881162490280646, -2.8241062754035613, 0.36198964494229924, 1.0243283808183519, -1.1716760586925052, -0.85968579481511909, 0.013426215887301113, 0.45592940704631862, -0.18233219591900263, -0.077875962958492154], [0.66337500966236507, -2.0498312037940711, 0.77835643948484168, 5.5516029256293882, 3.8136830395887054, -4.2975796664164596, -3.3698840964003614, 7.7628802113343722, -4.8434054371710049, -0.035605528693048748], [5.1355787345288579, 5.1683279045640296, -5.4451596961056694, -1.4265470673276945, 6.0873026174366789, -8.8686962993385077, -1.8830616353610323, 9.4489232070030162, -5.8905174437450336, 0.34769174276793124]]], prehc: 1000, lambdahc: 1, rcut: 6, dcut: 0.01, rcut_in: 1.45, dcut_in: 0.10000000000000001, inner_cutoff_type: distance}
  [3, 2]: {nradmax: 3, lmax: 2, nradbasemax: 10, radbasename: SBessel, radparameters: [5.25], radcoefficients: [[[7.5553229219214462, 0.83194089360356649, -3.0457627587305343, 3.5764663690939038, -3.7884994271712986, 2.8880993867322284, -0.15153915492771863, -0.72860483883941574, 0.56413199208814546, -0.22477675333054065], [9.8522501824006294, -0.98622519652735974, -11.23963031519054, 2.1680098584499619, 8.5437066737768284, -2.9702692728738636, -2.3142943896123755, 3.0217880641440349, -1.4523793027386891, -0.017074919053117393], [-0.7792123132433304, 0.54001166901129338, 0.10004218298289946, 0.19871077631346606, -0.59960413513985478, 0.39422135708646283, -0.25829361151727248, 0.1470715261375421, -0.054541290676455911, 0.013105254758037676]], [[-0.36864761860137757, 7.8890621400315943, 3.6527165646640638, -4.9999741573649867, 1.6735506502171633, 1.7029282631386542, 3.0337336402165866, -3.2979066113136835, 0.11640862709429819, 0.071144837922359469], [-9.0278083513762066, 0.92398884659742753, 10.285779511669785, -0.28588395845608272, -4.0895796708677272, 2.1613221367780326, -3.7173861487975359, 3.979371997050714, -0.14999694407158273, -0.37303394372217458], [-5.3090060658501939, 1.3485053587075795, 6.2167184014551227, -2.0169202655070575, -3.7931788714822789, 2.5757960711042469, -1.9700467303241853, 1.2868972793648659, -0.51523327782000472, 0.13033001925486049]], [[-4.7473044349283695, -16.311629399320402, -4.2789031629900149, 6.890196429151259, -0.79916213179296769, -5.4001821424713041, -5.666651284216992, 6.9533234028699633, -0.83230700098334254, 0.02025085033489538], [-3.1658643382855143, -0.65461230962537165, 4.6022362064816047, 4.7349917975286502, 2.4759425144302898, -4.4918584644509103, -3.08715669470855, 6.3319410832091698, -1.45200732779536, -0.69702899510963168], [-1.3800430873858345, 0.12460355972121068, 3.2340696516338538, 0.24935680343699582, -1.8875998286489746, -1.5545082107845629, -0.88525639581621662, 1.3417829038787286, -2.5035589554323923, 1.2307291882710143]]], prehc: 1000, lambdahc: 1, rcut: 6, dcut: 0.01, rcut_in: 1.45, dcut_in: 0.10000000000000001, inner_cutoff_type: distance}
  [3, 3]: {nradmax: 3, lmax: 2, nradbasemax: 15, radbasename: SBessel, radparameters: [5.25], radcoefficients: [[[4.7322406681304638, 2.3107562237156567, -1.9237517126092591, 0.12922584203658877, 0.42760799107189268, -0.5224078184617249, 1.247418654773544, -0.71093023946292566, 0.40267144589099518, 0.017736625036360001, -0.23966609645234829, 0.12035501406944001, -0.15692689636981694, 0.27948882005629833, -0.013185278843836516], [4.328356697105133, -0.52480157947459471, -3.4647666343095618, -0.063412731010709503, 0.80876314595504539, 0.53744936951225708, 0.40969955981576434, -0.93387441174037611, 0.29730907673506224, 0.24415262145734906, -0.90983807469002009, 0.80738688883956777, -0.29633150532718472, -0.010915869766662988, 0.023511319356313915], [7.1155131553641988, -0.70793890045834784, -4.5044686394072686, 1.9779891798788629, 1.0479789808143063, -0.2312399450745454, 1.7479303656073422, -0.5185643736176101, -0.84003601719824006, 0.49568409109420197, 0.47273870138474, 0.10423226622971349, 0.45016187058974017, -0.29471425217138181, -0.010983989737176498]], [[5.0440641493966867, 7.5381366508758019, -1.6946977134411014, -3.0835549345214881, 1.9693418918141741, 1.1796351855503768, 0.52120190634258168, 0.24246197727227403, -0.25519067492763375, -0.67538310606101015, 1.0352288999689541, -1.3757871111249735, 1.0245145885468978, -0.065845408005868383, 0.069190983958693858], [-2.0730655612764619, 0.83893874757420328, 4.0139317792059499, 0.28376851569594524, -3.4813713174561527, 1.012644645028469, 0.96471596644594282, -1.2998376179521933, 1.4800153591029861, -0.011936609700350879, -0.83677504130294789, 1.1441875955516934, -0.5573719733662198, 0.29932055097246951, 0.19623391941384632], [-0.25954676159792789, 1.964921349598632, 0.70029370727901241, -0.61788531400187452, 1.0882033858771398, 2.978811687714543, 1.4273987613625769, -1.0171296425043934, -0.72823824903215895, 0.95168692704946511, 0.48966772789703772, 0.17636080812940463, 0.62641279217435486, -0.28871242942364139, -0.15315219564759286]], [[-0.54200151341705705, -0.17711404817122681, 1.3590011539627231, -1.607294447912275, -3.1328803186371195, -1.0067321423073836, 0.98686721645254527, 0.1667039021017224, -1.4023057998834272, -1.0127559612129002, -0.13235125399201947, -0.40997732251957314, 0.29105864734170062, 0.060595789195648557, -0.25725414466523511], [0.92207625751553135, 1.1046103969035288, 0.43103779644997853, -2.4927483414730731, -0.55490717505505371, 2.0515662966439225, -0.14439158154647483, -1.0484251117994181, 0.78107907642598706, -0.17937462427528003, -0.3065310629943534, 0.5854473010288811, -0.011614470587947404, -0.16468048172829675, 0.19226513453956154], [-1.5783720675637611, -2.4396987722616097, 0.94647956622359564, 1.4422841114710421, 0.25175006351118717, 0.26605271199534236, -0.1240792275989725, -0.89119443466239945, 0.6613903712106266, 0.62716180911688046, -0.86311768200053129, -0.45548609074921848, 0.059799706188020427, 0.12114622573411042, -0.052086502312085371]]], prehc: 1000, lambdahc: 1, rcut: 6, dcut: 0.01, rcut_in: 1.45, dcut_in: 0.10000000000000001, inner_cutoff_type: distance}
functions:
  0:
    - {mu0: 0, rank: 1, ndensity: 2, num_ms_combs: 1, mus: [0], ns: [1], ls: [0], ms_combs: [0], ctildes: [3.8865999905141373, -23.132519232523592]}
    - {mu0: 0, rank: 1, ndensity: 2, num_ms_combs: 1, mus: [0], ns: [2], ls: [0], ms_combs: [0], ctildes: [-3.8184496928839446, -28.287692993839407]}
    - {mu0: 0, rank: 1, ndensity: 2, num_ms_combs: 1, mus: [0], ns: [3], ls: [0], ms_combs: [0], ctildes: [0.11753773933946438, -1.8648155536185886]}
    - {mu0: 0, rank: 1, ndensity: 2, num_ms_combs: 1, mus: [0], ns: [4], ls: [0], ms_combs: [0], ctildes: [3.8110902504680744, 12.086902889205914]}
    - {mu0: 0, rank: 1, ndensity: 2, num_ms_combs: 1, mus: [0], ns: [5], ls: [0], ms_combs: [0], ctildes: [-5.4453921991016987, -0.59193730674155021]}
    - {mu0: 0, rank: 1, ndensity: 2, num_ms_combs: 1, mus: [0], ns: [6], ls: [0], ms_combs: [0], ctildes: [5.2948399738250167, -3.8513127440526476]}
    - {mu0: 0, rank: 1, ndensity: 2, num_ms_combs: 1, mus: [0], ns: [7], ls: [0], ms_combs: [0], ctildes: [-4.4541755324864631, 4.5804587062261923]}
    - {mu0: 0, rank: 1, ndensity: 2, num_ms_combs: 1, mus: [0], ns: [8], ls: [0], ms_combs: [0], ctildes: [2.6693975372736776, 2.4213305711901785]}
    - {mu0: 0, rank: 1, ndensity: 2, num_ms_combs: 1, mus: [0], ns: [9], ls: [0], ms_combs: [0], ctildes: [-1.0211392844909495, -8.0214470201737029]}
    - {mu0: 0, rank: 1, ndensity: 2, num_ms_combs: 1, mus: [0], ns: [10], ls: [0], ms_combs: [0], ctildes: [0.36363447843924046, 6.2233214751827877]}
    - {mu0: 0, rank: 1, ndensity: 2, num_ms_combs: 1, mus: [0], ns: [11], ls: [0], ms_combs: [0], ctildes: [0.06870231131718009, 0.15452942384314114]}
    - {mu0: 0, rank: 1, ndensity: 2, num_ms_combs: 1, mus: [0], ns: [12], ls: [0], ms_combs: [0], ctildes: [-0.14739559737917901, -2.7433634292353268]}
    - {mu0: 0, rank: 1, ndensity: 2, num_ms_combs: 1, mus: [0], ns: [13], ls: [0], ms_combs: [0], ctildes: [0.19526749542757851, -0.10607450238784544]}
    - {mu0: 0, rank: 1, ndensity: 2, num_ms_combs: 1, mus: [0], ns: [14], ls: [0], ms_combs: [0], ctildes: [-0.28828520500607285, 3.0449123430982064]}
    - {mu0: 0, rank: 1, ndensity: 2, num_ms_combs: 1, mus: [0], ns: [15], ls: [0], ms_combs: [0], ctildes: [0.1787533778752754, -2.7274918094263185]}
    - {mu0: 0, rank: 1, ndensity: 2, num_ms_combs: 1, mus: [1], ns: [1], ls: [0], ms_combs: [0], ctildes: [-0.82127386083948006, -28.782724390152165]}
    - {mu0: 0, rank: 1, ndensity: 2, num_ms_combs: 1, mus: [1], ns: [2], ls: [0], ms_combs: [0], ctildes: [-0.10944467833636561, -24.391485522788013]}
    - {mu0: 0, rank: 1, ndensity: 2, num_ms_combs: 1, mus: [1], ns: [3], ls: [0], ms_combs: [0], ctildes: [-0.54462773346348325, 11.115039329236627]}
    - {mu0: 0, rank: 1, ndensity: 2, num_ms_combs: 1, mus: [1], ns: [4], ls: [0], ms_combs: [0], ctildes: [0.16298780429968165, 8.5110230281076955]}
    - {mu0: 0, rank: 1, ndensity: 2, num_ms_combs: 1, mus: [1], ns: [5], ls: [0], ms_combs: [0], ctildes: [0.80704828292599484, -15.363449579901065]}
    - {mu0: 0, rank: 1, ndensity: 2, num_ms_combs: 1, mus: [1], ns: [6], ls: [0], ms_combs: [0], ctildes: [-0.43213517414959424, -0.25659380112866392]}
    - {mu0: 0, rank: 1, ndensity: 2, num_ms_combs: 1, mus: [1], ns: [7], ls: [0], ms_combs: [0], ctildes: [0.0040062250878893958, 13.22325062168251]}
    - {mu0: 0, rank: 1, ndensity: 2, num_ms_combs: 1, mus: [1], ns: [8], ls: [0], ms_combs: [0], ctildes: [-0.29701366108947275, -10.814133927974938]}
    - {mu0: 0, rank: 1, ndensity: 2, num_ms_combs: 1, mus: [1], ns: [9], ls: [0], ms_combs: [0], ctildes: [0.22983384620801667, 2.0173056487166185]}
    - {mu0: 0, rank: 1, ndensity: 2, num_ms_combs: 1, mus: [1], ns: [10], ls: [0], ms_combs: [0], ctildes: [0.03611437725928604, -0.34916000527750207]}
    - {mu0: 0, rank: 1, ndensity: 2, num_ms_combs: 1, mus: [2], ns: [1], ls: [0], ms_combs: [0], ctildes: [-0.28399517274680153, -26.616482897971711]}
    - {mu0: 0, rank: 1, ndensity: 2, num_ms_combs: 1, mus: [2], ns: [2], ls: [0], ms_combs: [0], ctildes: [-0.52801017469938361, -29.626541687473289]}
    - {mu0: 0, rank: 1, ndensity: 2, num_ms_combs: 1, mus: [2], ns: [3], ls: [0], ms_combs: [0], ctildes: [-0.43329173041746361, -5.4688685468594311]}
    - {mu0: 0, rank: 1, ndensity: 2, num_ms_combs: 1, mus: [2], ns: [4], ls: [0], ms_combs: [0], ctildes: [1.4134648718272795, -1.6871811605647244]}
    - {mu0: 0, rank: 1, ndensity: 2, num_ms_combs: 1, mus: [2], ns: [5], ls: [0], ms_combs: [0], ctildes: [-0.10170649019229705, -9.9449308702068091]}
    - {mu0: 0, rank: 1, ndensity: 2, num_ms_combs: 1, mus: [2], ns: [6], ls: [0], ms_combs: [0], ctildes: [-0.28840112880187763, 4.4662341598945066]}
    - {mu0: 0, rank: 1, ndensity: 2, num_ms_combs: 1, mus: [2], ns: [7], ls: [0], ms_combs: [0], ctildes: [-0.20868881394758093, 15.22788961383327]}
    - {mu0: 0, rank: 1, ndensity: 2, num_ms_combs: 1, mus: [2], ns: [8], ls: [0], ms_combs: [0], ctildes: [-0.25463411593701263, -4.6886337319914544]}
    - {mu0: 0, rank: 1, ndensity: 2, num_ms_combs: 1, mus: [2], ns: [9], ls: [0], ms_combs: [0], ctildes: [0.70171949449137572, -16.81187712183447]}
    - {mu0: 0, rank: 1, ndensity: 2, num_ms_combs: 1, mus: [2], ns: [10], ls: [0], ms_combs: [0], ctildes: [0.0068283560011430143, 0.18473167520025988]}
    - {mu0: 0, rank: 1, ndensity: 2, num_ms_combs: 1, mus: [3], ns: [1], ls: [0], ms_combs: [0], ctildes: [7.4384497020774285, -13.075587380484752]}
    - {mu0: 0, rank: 1, ndensity: 2, num_ms_combs: 1, mus: [3], ns: [2], ls: [0], ms_combs: [0], ctildes: [-0.86369181084964119, -13.333775441701308]}
    - {mu0: 0, rank: 1, ndensity: 2, num_ms_combs: 1, mus: [3], ns: [3], ls: [0], ms_combs: [0], ctildes: [1.7015962470512043, 2.8487924118279486]}
    - {mu0: 0, rank: 1, ndensity: 2, num_ms_combs: 1, mus: [3], ns: [4], ls: [0], ms_combs: [0], ctildes: [-2.5185529752525477, 1.27834876903245]}
    - {mu0: 0, rank: 1, ndensity: 2, num_ms_combs: 1, mus: [3], ns: [5], ls: [0], ms_combs: [0], ctildes: [1.8394695580699081, -9.4706228788285518]}
    - {mu0: 0, rank: 1, ndensity: 2, num_ms_combs: 1, mus: [3], ns: [6], ls: [0], ms_combs: [0], ctildes: [0.55436956119079117, -0.040759585338138747]}
    - {mu0: 0, rank: 1, ndensity: 2, num_ms_combs: 1, mus: [3], ns: [7], ls: [0], ms_combs: [0], ctildes: [1.1409803724245817, 7.2240258705920315]}
    - {mu0: 0, rank: 1, ndensity: 2, num_ms_combs: 1, mus: [3], ns: [8], ls: [0], ms_combs: [0], ctildes: [-0.82789711641425012, -3.0078827813132625]}
    - {mu0: 0, rank: 1, ndensity: 2, num_ms_combs: 1, mus: [3], ns: [9], ls: [0], ms_combs: [0], ctildes: [-0.19402084047359797, -0.052139881316438687]}
    - {mu0: 0, rank: 1, ndensity: 2, num_ms_combs: 1, mus: [3], ns: [10], ls: [0], ms_combs: [0], ctildes: [-0.033971128962971338, -1.1920504384071891]}
    - {mu0: 0, rank: 2, ndensity: 2, num_ms_combs: 1, mus: [0, 0], ns: [1, 1], ls: [0, 0], ms_combs: [0, 0], ctildes: [0.00015245335685086034, 0.0034575054419936279]}
    - {mu0: 0, rank: 2, ndensity: 2, num_ms_combs: 2, mus: [0, 0], ns: [1, 1], ls: [1, 1], ms_combs: [0, 0, 1, -1], ctildes: [0.0071494966630372015, -0.12608221272964168, -0.014298993326074401, 0.2521644254592833]}
    - {mu0: 0, rank: 2, ndensity: 2, num_ms_combs: 3, mus: [0, 0], ns: [1, 1], ls: [2, 2], ms_combs: [0, 0, 1, -1, 2, -2], ctildes: [0.03435597776396862, -0.69098259158576425, -0.068711955527937255, 1.3819651831715285, 0.068711955527937268, -1.3819651831715289]}
    - {mu0: 0, rank: 2, ndensity: 2, num_ms_combs: 1, mus: [0, 0], ns: [1, 2], ls: [0, 0], ms_combs: [0, 0], ctildes: [-0.00013153184139989664, -0.0095405207094010468]}
    - {mu0: 0, rank: 2, ndensity: 2, num_ms_combs: 2, mus: [0, 0], ns: [1, 2], ls: [1, 1], ms_combs: [0, 0, 1, -1], ctildes: [0.00092916568523128287, -0.038089299163303142, -0.0018583313704625653, 0.07617859832660627]}
    - {mu0: 0, rank: 2, ndensity: 2, num_ms_combs: 3, mus: [0, 0], ns: [1, 2], ls: [2, 2], ms_combs: [0, 0, 1, -1, 2, -2], ctildes: [0.0041274870982105786, -0.094455174704004538, -0.0082549741964211571, 0.1889103494080091, 0.0082549741964211606, -0.18891034940800916]}
    - {mu0: 0, rank: 2, ndensity: 2, num_ms_combs: 1, mus: [0, 0], ns: [1, 3], ls: [0, 0], ms_combs: [0, 0], ctildes: [0.00052187271564979869, -0.0074288159064620019]}
    - {mu0: 0, rank: 2, ndensity: 2, num_ms_combs: 2, mus: [0, 0], ns: [1, 3], ls: [1, 1], ms_combs: [0, 0, 1, -1], ctildes: [-0.0025561457561585747, 0.13826157720249299, 0.0051122915123171485, -0.27652315440498593]}
    - {mu0: 0, rank: 2, ndensity: 2, num_ms_combs: 3, mus: [0, 0], ns: [1, 3], ls: [2, 2], ms_combs: [0, 0, 1, -1, 2, -2], ctildes: [-0.00071500663313730909, 0.007373948941884474, 0.0014300132662746184, -0.01474789788376895, -0.0014300132662746188, 0.014747897883768955]}
    - {mu0: 0, rank: 2, ndensity: 2, num_ms_combs: 1, mus: [0, 0], ns: [2, 2], ls: [0, 0], ms_combs: [0, 0], ctildes: [0.00035097628044147139, 0.0016459285623802629]}
    - {mu0: 0, rank: 2, ndensity: 2, num_ms_combs: 2, mus: [0, 0], ns: [2, 2], ls: [1, 1], ms_combs: [0, 0, 1, -1], ctildes: [0.00036345943675448626, -0.0047569222759213164, -0.00072691887350897241, 0.0095138445518426311]}
    - {mu0: 0, rank: 2, ndensity: 2, num_ms_combs: 3, mus: [0, 0], ns: [2, 2], ls: [2, 2], ms_combs: [0, 0, 1, -1, 2, -2], ctildes: [-0.0078086562663335028, 0.23473215641119588, 0.015617312532667007, -0.46946431282239182, -0.015617312532667011, 0.46946431282239193]}
    - {mu0: 0, rank: 2, ndensity: 2, num_ms_combs: 1, mus: [0, 0], ns: [2, 3], ls: [0, 0], ms_combs: [0, 0], ctildes: [0.0022450812657758652, -0.055676641118026601]}
    - {mu0: 0, rank: 2, ndensity: 2, num_ms_combs: 2, mus: [0, 0], ns: [2, 3], ls: [1, 1], ms_combs: [0, 0, 1, -1], ctildes: [-0.0026192411444111909, 0.071915300480153363, 0.005238482288822381, -0.1438306009603067]}
    - {mu0: 0, rank: 2, ndensity: 2, num_ms_combs: 3, mus: [0, 0], ns: [2, 3], ls: [2, 2], ms_combs: [0, 0, 1, -1, 2, -2], ctildes: [-0.010180190327462155, 0.2677810853575085, 0.020360380654924314, -0.53556217071501711, -0.02036038065492432, 0.53556217071501722]}
    - {mu0: 0, rank: 2, ndensity: 2, num_ms_combs: 1, mus: [0, 0], ns: [3, 3], ls: [0, 0], ms_combs: [0, 0], ctildes: [-0.0060391335848959176, 0.13058986583691515]}
    - {mu0: 0, rank: 2, ndensity: 2, num_ms_combs: 2, mus: [0, 0], ns: [3, 3], ls: [1, 1], ms_combs: [0, 0, 1, -1], ctildes: [0.0021582391928456689, -0.081262438959438577, -0.0043164783856913368, 0.16252487791887713]}
    - {mu0: 0, rank: 2, ndensity: 2, num_ms_combs: 3, mus: [0, 0], ns: [3, 3], ls: [2, 2], ms_combs: [0, 0, 1, -1, 2, -2], ctildes: [-0.0023897657034405743, 0.051866648504265103, 0.0047795314068811495, -0.10373329700853022, -0.0047795314068811504, 0.10373329700853025]}
    - {mu0: 0, rank: 2, ndensity: 2, num_ms_combs: 1, mus: [0, 1], ns: [1, 1], ls: [0, 0], ms_combs: [0, 0], ctildes: [-0.044320964472409324, 0.43137736149145028]}
    - {mu0: 0, rank: 2, ndensity: 2, num_ms_combs: 2, mus: [0, 1], ns: [1, 1], ls: [1, 1], ms_combs: [0, 0, 1, -1], ctildes: [-0.31030030443818679, -3.2417187681756053e-06, 0.62060060887637347, 6.4834375363512089e-06]}
    - {mu0: 0, rank: 2, ndensity: 2, num_ms_combs: 3, mus: [0, 1], ns: [1, 1], ls: [2, 2], ms_combs: [0, 0, 1, -1, 2, -2], ctildes: [-0.91702263604293821, -0.00024195480195578052, 1.8340452720858769, 0.00048390960391156109, -1.8340452720858773, -0.0004839096039115612]}
    - {mu0: 0, rank: 2, ndensity: 2, num_ms_combs: 1, mus: [0, 1], ns: [1, 2], ls: [0, 0], ms_combs: [0, 0], ctildes: [0.0020298539185420214, -0.03364999859889569]}
    - {mu0: 0, rank: 2, ndensity: 2, num_ms_combs: 2, mus: [0, 1], ns: [1, 2], ls: [1, 1], ms_combs: [0, 0, 1, -1], ctildes: [-0.0047797589436764636, 0.13414429337631695, 0.0095595178873529255, -0.26828858675263384]}
    - {mu0: 0, rank: 2, ndensity: 2, num_ms_combs: 3, mus: [0, 1], ns: [1, 2], ls: [2, 2], ms_combs: [0, 0, 1, -1, 2, -2], ctildes: [-0.01251977719131853, 0.36227760112955809, 0.025039554382637063, -0.72455520225911629, -0.025039554382637066, 0.72455520225911652]}
    - {mu0: 0, rank: 2, ndensity: 2, num_ms_combs: 1, mus: [0, 1], ns: [1, 3], ls: [0, 0], ms_combs: [0, 0], ctildes: [-0.0039895124259397736, -0.0093342089847200937]}
    - {mu0: 0, rank: 2, ndensity: 2, num_ms_combs: 2, mus: [0, 1], ns: [1, 3], ls: [1, 1], ms_combs: [0, 0, 1, -1], ctildes: [-0.0017209519266936084, 0.070252173698977946, 0.003441903853387216, -0.14050434739795586]}
    - {mu0: 0, rank: 2, ndensity: 2, num_ms_combs: 3, mus: [0, 1], ns: [1, 3], ls: [2, 2], ms_combs: [0, 0, 1, -1, 2, -2], ctildes: [-0.0027420421400382051, 0.13573009253653831, 0.005484084280076411, -0.27146018507307668, -0.0054840842800764119, 0.27146018507307673]}
    - {mu0: 0, rank: 2, ndensity: 2, num_ms_combs: 1, mus: [0, 1], ns: [2, 1], ls: [0, 0], ms_combs: [0, 0], ctildes: [0.023949244458200434, -0.30743854452563169]}
    - {mu0: 0, rank: 2, ndensity: 2, num_ms_combs: 2, mus: [0, 1], ns: [2, 1], ls: [1, 1], ms_combs: [0, 0, 1, -1], ctildes: [-0.089140917324591049, 0.0005929740348799658, 0.17828183464918204, -0.0011859480697599314]}
    - {mu0: 0, rank: 2, ndensity: 2, num_ms_combs: 3, mus: [0, 1], ns: [2, 1], ls: [2, 2], ms_combs: [0, 0, 1, -1, 2, -2], ctildes: [0.22832998133113858, 1.6768006685246479e-07, -0.45665996266227721, -3.3536013370492963e-07, 0.45665996266227732, 3.3536013370492974e-07]}
    - {mu0: 0, rank: 2, ndensity: 2, num_ms_combs: 1, mus: [0, 1], ns: [2, 2], ls: [0, 0], ms_combs: [0, 0], ctildes: [-0.0006606951127905745, 0.017851245796973458]}
    - {mu0: 0, rank: 2, ndensity: 2, num_ms_combs: 2, mus: [0, 1], ns: [2, 2], ls: [1, 1], ms_combs: [0, 0, 1, -1], ctildes: [-0.000528490771403932, 0.036130901345419721, 0.0010569815428078638, -0.072261802690839427]}
    - {mu0: 0, rank: 2, ndensity: 2, num_ms_combs: 3, mus: [0, 1], ns: [2, 2], ls: [2, 2], ms_combs: [0, 0, 1, -1, 2, -2], ctildes: [0.006759340249912627, -0.20654569859394714, -0.013518680499825256, 0.41309139718789434, 0.013518680499825259, -0.41309139718789445]}
    - {mu0: 0, rank: 2, ndensity: 2, num_ms_combs: 1, mus: [0, 1], ns: [2, 3], ls: [0, 0], ms_combs: [0, 0], ctildes: [0.01542954475272193, -0.16088531612117876]}
    - {mu0: 0, rank: 2, ndensity: 2, num_ms_combs: 2, mus: [0, 1], ns: [2, 3], ls: [1, 1], ms_combs: [0, 0, 1, -1], ctildes: [-0.00076643994789264583, 0.014060936023470935, 0.0015328798957852912, -0.028121872046941863]}
    - {mu0: 0, rank: 2, ndensity: 2, num_ms_combs: 3, mus: [0, 1], ns: [2, 3], ls: [2, 2], ms_combs: [0, 0, 1, -1, 2, -2], ctildes: [-0.0042298352070067749, 0.11442660064618544, 0.0084596704140135499, -0.22885320129237091, -0.0084596704140135516, 0.22885320129237097]}
    - {mu0: 0, rank: 2, ndensity: 2, num_ms_combs: 1, mus: [0, 1], ns: [3, 1], ls: [0, 0], ms_combs: [0, 0], ctildes: [0.016760198555162739, -0.84289968001626825]}
    - {mu0: 0, rank: 2, ndensity: 2, num_ms_combs: 2, mus: [0, 1], ns: [3, 1], ls: [1, 1], ms_combs: [0, 0, 1, -1], ctildes: [0.15520662460714685, 1.5880642115526986e-05, -0.31041324921429364, -3.1761284231053966e-05]}
    - {mu0: 0, rank: 2, ndensity: 2, num_ms_combs: 3, mus: [0, 1], ns: [3, 1], ls: [2, 2], ms_combs: [0, 0, 1, -1, 2, -2], ctildes: [-0.21058952416753507, -3.1954707956138204e-05, 0.42117904833507019, 6.3909415912276422e-05, -0.42117904833507031, -6.3909415912276435e-05]}
    - {mu0: 0, rank: 2, ndensity: 2, num_ms_combs: 1, mus: [0, 1], ns: [3, 2], ls: [0, 0], ms_combs: [0, 0], ctildes: [-0.00064496347990893748, 0.011756169700261608]}
    - {mu0: 0, rank: 2, ndensity: 2, num_ms_combs: 2, mus: [0, 1], ns: [3, 2], ls: [1, 1], ms_combs: [0, 0, 1, -1], ctildes: [-0.00023732094877811416, -0.046852706727721925, 0.00047464189755622822, 0.093705413455443837]}
    - {mu0: 0, rank: 2, ndensity: 2, num_ms_combs: 3, mus: [0, 1], ns: [3, 2], ls: [2, 2], ms_combs: [0, 0, 1, -1, 2, -2], ctildes: [0.0019118263812526938, -0.06345046365963368, -0.0038236527625053881, 0.12690092731926736, 0.003823652762505389, -0.12690092731926739]}
    - {mu0: 0, rank: 2, ndensity: 2, num_ms_combs: 1, mus: [0, 1], ns: [3, 3], ls: [0, 0], ms_combs: [0, 0], ctildes: [0.006363360456631325, -0.23301898671656582]}
    - {mu0: 0, rank: 2, ndensity: 2, num_ms_combs: 2, mus: [0, 1], ns: [3, 3], ls: [1, 1], ms_combs: [0, 0, 1, -1], ctildes: [0.002428717248561391, -0.075205793713194066, -0.0048574344971227812, 0.1504115874263881]}
    - {mu0: 0, rank: 2, ndensity: 2, num_ms_combs: 1, mus: [0, 2], ns: [1, 1], ls: [0, 0], ms_combs: [0, 0], ctildes: [-0.0070192629605133946, -0.015419947895547527]}
    - {mu0: 0, rank: 2, ndensity: 2, num_ms_combs: 2, mus: [0, 2], ns: [1, 1], ls: [1, 1], ms_combs: [0, 0, 1, -1], ctildes: [-4.1440250570776618, -0.12694173455065311, 8.2880501141553218, 0.25388346910130616]}
    - {mu0: 0, rank: 2, ndensity: 2, num_ms_combs: 3, mus: [0, 2], ns: [1, 1], ls: [2, 2], ms_combs: [0, 0, 1, -1, 2, -2], ctildes: [0.0085736911922753775, -0.027252040552207042, -0.017147382384550758, 0.054504081104414091, 0.017147382384550762, -0.054504081104414105]}
    - {mu0: 0, rank: 2, ndensity: 2, num_ms_combs: 1, mus: [0, 2], ns: [1, 2], ls: [0, 0], ms_combs: [0, 0], ctildes: [-0.00073583303978659055, 0.0064901609656523394]}
    - {mu0: 0, rank: 2, ndensity: 2, num_ms_combs: 2, mus: [0, 2], ns: [1, 2], ls: [1, 1], ms_combs: [0, 0, 1, -1], ctildes: [-0.0010489468554645148, 0.054489873741673987, 0.0020978937109290292, -0.10897974748334795]}
    - {mu0: 0, rank: 2, ndensity: 2, num_ms_combs: 3, mus: [0, 2], ns: [1, 2], ls: [2, 2], ms_combs: [0, 0, 1, -1, 2, -2], ctildes: [-0.0011747374094540103, 0.11216562537280902, 0.0023494748189080207, -0.22433125074561808, -0.0023494748189080215, 0.22433125074561813]}
    - {mu0: 0, rank: 2, ndensity: 2, num_ms_combs: 1, mus: [0, 2], ns: [1, 3], ls: [0, 0], ms_combs: [0, 0], ctildes: [-0.00032455694494155977, 0.00084938948099852105]}
    - {mu0: 0, rank: 2, ndensity: 2, num_ms_combs: 2, mus: [0, 2], ns: [1, 3], ls: [1, 1], ms_combs: [0, 0, 1, -1], ctildes: [9.8330547329691039e-05, 0.022286569281233425, -0.00019666109465938205, -0.044573138562466842]}
    - {mu0: 0, rank: 2, ndensity: 2, num_ms_combs: 3, mus: [0, 2], ns: [1, 3], ls: [2, 2], ms_combs: [0, 0, 1, -1, 2, -2], ctildes: [0.0076651334487615429, -0.28722868508775196, -0.015330266897523087, 0.57445737017550402, 0.015330266897523091, -0.57445737017550413]}
    - {mu0: 0, rank: 2, ndensity: 2, num_ms_combs: 1, mus: [0, 2], ns: [2, 1], ls: [0, 0], ms_combs: [0, 0], ctildes: [0.0010248054106942186, 0.12803931728799478]}
    - {mu0: 0, rank: 2, ndensity: 2, num_ms_combs: 2, mus: [0, 2], ns: [2, 1], ls: [1, 1], ms_combs: [0, 0, 1, -1], ctildes: [1.3656081257153097, 0.051867281849030597, -2.7312162514306189, -0.10373456369806118]}
    - {mu0: 0, rank: 2, ndensity: 2, num_ms_combs: 3, mus: [0, 2], ns: [2, 1], ls: [2, 2], ms_combs: [0, 0, 1, -1, 2, -2], ctildes: [-0.01575999642385921, 0.46400467071887491, 0.03151999284771842, -0.92800934143774994, -0.031519992847718427, 0.92800934143775027]}
    - {mu0: 0, rank: 2, ndensity: 2, num_ms_combs: 1, mus: [0, 2], ns: [2, 2], ls: [0, 0], ms_combs: [0, 0], ctildes: [0.0017465376363029893, -0.032866172974245371]}
    - {mu0: 0, rank: 2, ndensity: 2, num_ms_combs: 2, mus: [0, 2], ns: [2, 2], ls: [1, 1], ms_combs: [0, 0, 1, -1], ctildes: [-0.0014638258750305155, 0.026579830652784603, 0.0029276517500610305, -0.053159661305569199]}
    - {mu0: 0, rank: 2, ndensity: 2, num_ms_combs: 3, mus: [0, 2], ns: [2, 2], ls: [2, 2], ms_combs: [0, 0, 1, -1, 2, -2], ctildes: [-0.0045266725284757534, 0.12050340436837684, 0.0090533450569515086, -0.2410068087367537, -0.0090533450569515103, 0.24100680873675376]}
    - {mu0: 0, rank: 2, ndensity: 2, num_ms_combs: 1, mus: [0, 2], ns: [2, 3], ls: [0, 0], ms_combs: [0, 0], ctildes: [0.0020535288897208172, -0.028060515809638215]}
    - {mu0: 0, rank: 2, ndensity: 2, num_ms_combs: 2, mus: [0, 2], ns: [2, 3], ls: [1, 1], ms_combs: [0, 0, 1, -1], ctildes: [-0.001048417452167426, 0.029085376693426656, 0.0020968349043348515, -0.058170753386853298]}
    - {mu0: 0, rank: 2, ndensity: 2, num_ms_combs: 3, mus: [0, 2], ns: [2, 3], ls: [2, 2], ms_combs: [0, 0, 1, -1, 2, -2], ctildes: [0.0013344709848772647, -0.040224022655762158, -0.0026689419697545299, 0.08044804531152433, 0.0026689419697545303, -0.080448045311524344]}
    - {mu0: 0, rank: 2, ndensity: 2, num_ms_combs: 1, mus: [0, 2], ns: [3, 1], ls: [0, 0], ms_combs: [0, 0], ctildes: [0.0025861195059570389, -0.31792020006193356]}
    - {mu0: 0, rank: 2, ndensity: 2, num_ms_combs: 2, mus: [0, 2], ns: [3, 1], ls: [1, 1], ms_combs: [0, 0, 1, -1], ctildes: [-0.52888548040123351, -0.0014158330925315786, 1.0577709608024668, 0.0028316661850631562]}
    - {mu0: 0, rank: 2, ndensity: 2, num_ms_combs: 3, mus: [0, 2], ns: [3, 1], ls: [2, 2], ms_combs: [0, 0, 1, -1, 2, -2], ctildes: [-0.004443056959004218, 0.10935842548449813, 0.0088861139180084377, -0.21871685096899629, -0.0088861139180084394, 0.21871685096899635]}
    - {mu0: 0, rank: 2, ndensity: 2, num_ms_combs: 1, mus: [0, 2], ns: [3, 2], ls: [0, 0], ms_combs: [0, 0], ctildes: [0.00084612536496418234, -0.036409111844512967]}
    - {mu0: 0, rank: 2, ndensity: 2, num_ms_combs: 2, mus: [0, 2], ns: [3, 2], ls: [1, 1], ms_combs: [0, 0, 1, -1], ctildes: [-0.0015326347263922037, 0.020382496587482507, 0.003065269452784407, -0.040764993174965007]}
    - {mu0: 0, rank: 2, ndensity: 2, num_ms_combs: 3, mus: [0, 2], ns: [3, 2], ls: [2, 2], ms_combs: [0, 0, 1, -1, 2, -2], ctildes: [-0.0011392087443951244, 0.02852903870302893, 0.0022784174887902492, -0.057058077406057867, -0.0022784174887902496, 0.05705807740605788]}
    - {mu0: 0, rank: 2, ndensity: 2, num_ms_combs: 1, mus: [0, 2], ns: [3, 3], ls: [0, 0], ms_combs: [0, 0], ctildes: [0.0037456760017238978, -0.11015084662653034]}
    - {mu0: 0, rank: 2, ndensity: 2, num_ms_combs: 2, mus: [0, 2], ns: [3, 3], ls: [1, 1], ms_combs: [0, 0, 1, -1], ctildes: [0.0028157365355522546, -0.092112294296506539, -0.0056314730711045074, 0.18422458859301305]}
    - {mu0: 0, rank: 2, ndensity: 2, num_ms_combs: 1, mus: [0, 3], ns: [1, 1], ls: [0, 0], ms_combs: [0, 0], ctildes: [-0.013131884103551112, 0.19574237636333386]}
    - {mu0: 0, rank: 2, ndensity: 2, num_ms_combs: 2, mus: [0, 3], ns: [1, 1], ls: [1, 1], ms_combs: [0, 0, 1, -1], ctildes: [-0.99280615248213877, 0.0016995847337173389, 1.9856123049642771, -0.0033991694674346774]}
    - {mu0: 0, rank: 2, ndensity: 2, num_ms_combs: 3, mus: [0, 3], ns: [1, 1], ls: [2, 2], ms_combs: [0, 0, 1, -1, 2, -2], ctildes: [-1.7545936512808529, -0.042894644164290681, 3.5091873025617062, 0.085789288328581376, -3.5091873025617071, -0.085789288328581403]}
    - {mu0: 0, rank: 2, ndensity: 2, num_ms_combs: 1, mus: [0, 3], ns: [1, 2], ls: [0, 0], ms_combs: [0, 0], ctildes: [0.0010995765015481863, -0.024401373434900168]}
    - {mu0: 0, rank: 2, ndensity: 2, num_ms_combs: 2, mus: [0, 3], ns: [1, 2], ls: [1, 1], ms_combs: [0, 0, 1, -1], ctildes: [-0.0043258188497498507, 0.11530559075689234, 0.0086516376994996997, -0.23061118151378462]}
    - {mu0: 0, rank: 2, ndensity: 2, num_ms_combs: 3, mus: [0, 3], ns: [1, 2], ls: [2, 2], ms_combs: [0, 0, 1, -1, 2, -2], ctildes: [-0.0072071928257824167, 0.11684030748370478, 0.014414385651564835, -0.23368061496740958, -0.014414385651564839, 0.23368061496740963]}
    - {mu0: 0, rank: 2, ndensity: 2, num_ms_combs: 1, mus: [0, 3], ns: [1, 3], ls: [0, 0], ms_combs: [0, 0], ctildes: [0.00025175116137254091, -0.0029069155964898019]}
    - {mu0: 0, rank: 2, ndensity: 2, num_ms_combs: 2, mus: [0, 3], ns: [1, 3], ls: [1, 1], ms_combs: [0, 0, 1, -1], ctildes: [-0.0021315319006191993, 0.054002447001673073, 0.0042630638012383978, -0.10800489400334613]}
    - {mu0: 0, rank: 2, ndensity: 2, num_ms_combs: 3, mus: [0, 3], ns: [1, 3], ls: [2, 2], ms_combs: [0, 0, 1, -1, 2, -2], ctildes: [0.0039111051460921503, -0.097876551538594897, -0.0078222102921843006, 0.19575310307718982, 0.0078222102921843024, -0.19575310307718985]}
    - {mu0: 0, rank: 2, ndensity: 2, num_ms_combs: 1, mus: [0, 3], ns: [2, 1], ls: [0, 0], ms_combs: [0, 0], ctildes: [0.01771063450569255, -0.35696836641686902]}
    - {mu0: 0, rank: 2, ndensity: 2, num_ms_combs: 2, mus: [0, 3], ns: [2, 1], ls: [1, 1], ms_combs: [0, 0, 1, -1], ctildes: [-0.26209226326050733, -0.012935712236199924, 0.52418452652101455, 0.025871424472399845]}
    - {mu0: 0, rank: 2, ndensity: 2, num_ms_combs: 3, mus: [0, 3], ns: [2, 1], ls: [2, 2], ms_combs: [0, 0, 1, -1, 2, -2], ctildes: [-0.32107083218551702, -0.002155469545925924, 0.64214166437103415, 0.0043109390918518488, -0.64214166437103437, -0.0043109390918518497]}
    - {mu0: 0, rank: 2, ndensity: 2, num_ms_combs: 1, mus: [0, 3], ns: [2, 2], ls: [0, 0], ms_combs: [0, 0], ctildes: [-0.0024153013882497907, 0.058564237707230349]}
    - {mu0: 0, rank: 2, ndensity: 2, num_ms_combs: 2, mus: [0, 3], ns: [2, 2], ls: [1, 1], ms_combs: [0, 0, 1, -1], ctildes: [-0.00020769795700679544, 0.0096707780953754121, 0.00041539591401359082, -0.019341556190750821]}
    - {mu0: 0, rank: 2, ndensity: 2, num_ms_combs: 3, mus: [0, 3], ns: [2, 2], ls: [2, 2], ms_combs: [0, 0, 1, -1, 2, -2], ctildes: [0.0005879816659675578, -0.029888276336321247, -0.0011759633319351158, 0.059776552672642501, 0.001175963331935116, -0.059776552672642515]}
    - {mu0: 0, rank: 2, ndensity: 2, num_ms_combs: 1, mus: [0, 3], ns: [2, 3], ls: [0, 0], ms_combs: [0, 0], ctildes: [-0.0020336881167246708, 0.041980294795916633]}
    - {mu0: 0, rank: 2, ndensity: 2, num_ms_combs: 2, mus: [0, 3], ns: [2, 3], ls: [1, 1], ms_combs: [0, 0, 1, -1], ctildes: [-0.0013292384255478302, 0.026300357860733738, 0.0026584768510956596, -0.052600715721467468]}
    - {mu0: 0, rank: 2, ndensity: 2, num_ms_combs: 3, mus: [0, 3], ns: [2, 3], ls: [2, 2], ms_combs: [0, 0, 1, -1, 2, -2], ctildes: [-0.0018998634335352696, 0.040914504993018484, 0.0037997268670705397, -0.081829009986036969, -0.0037997268670705406, 0.081829009986036996]}
    - {mu0: 0, rank: 2, ndensity: 2, num_ms_combs: 1, mus: [0, 3], ns: [3, 1], ls: [0, 0], ms_combs: [0, 0], ctildes: [-0.013938748529669148, 0.25104991925059]}
    - {mu0: 0, rank: 2, ndensity: 2, num_ms_combs: 2, mus: [0, 3], ns: [3, 1], ls: [1, 1], ms_combs: [0, 0, 1, -1], ctildes: [0.31590818955908417, 0.0017790544902299551, -0.63181637911816824, -0.0035581089804599098]}
    - {mu0: 0, rank: 2, ndensity: 2, num_ms_combs: 3, mus: [0, 3], ns: [3, 1], ls: [2, 2], ms_combs: [0, 0, 1, -1, 2, -2], ctildes: [-0.16848968369030201, 0.003115871916987068, 0.33697936738060402, -0.0062317438339741368, -0.33697936738060413, 0.0062317438339741377]}
    - {mu0: 0, rank: 2, ndensity: 2, num_ms_combs: 1, mus: [0, 3], ns: [3, 2], ls: [0, 0], ms_combs: [0, 0], ctildes: [0.00044772461730390177, -0.013896731827700688]}
    - {mu0: 0, rank: 2, ndensity: 2, num_ms_combs: 2, mus: [0, 3], ns: [3, 2], ls: [1, 1], ms_combs: [0, 0, 1, -1], ctildes: [-0.00040090209072743974, -0.021047739204798074, 0.00080180418145487937, 0.04209547840959614]}
    - {mu0: 0, rank: 2, ndensity: 2, num_ms_combs: 3, mus: [0, 3], ns: [3, 2], ls: [2, 2], ms_combs: [0, 0, 1, -1, 2, -2], ctildes: [0.00045432368175947366, -0.015137426426238521, -0.00090864736351894742, 0.030274852852477045, 0.00090864736351894764, -0.030274852852477052]}
    - {mu0: 0, rank: 2, ndensity: 2, num_ms_combs: 1, mus: [0, 3], ns: [3, 3], ls: [0, 0], ms_combs: [0, 0], ctildes: [-0.0020230693739887312, 0.057999759516844968]}
    - {mu0: 0, rank: 2, ndensity: 2, num_ms_combs: 2, mus: [0, 3], ns: [3, 3], ls: [1, 1], ms_combs: [0, 0, 1, -1], ctildes: [0.0036810522959720301, -0.083117263677672804, -0.0073621045919440584, 0.16623452735534558]}
    - {mu0: 0, rank: 2, ndensity: 2, num_ms_combs: 1, mus: [1, 1], ns: [1, 1], ls: [0, 0], ms_combs: [0, 0], ctildes: [0.28402042355328588, -1.6847495243350681]}
    - {mu0: 0, rank: 2, ndensity: 2, num_ms_combs: 2, mus: [1, 1], ns: [1, 1], ls: [1, 1], ms_combs: [0, 0, 1, -1], ctildes: [-0.030275137007611051, 1.6162294394402727e-06, 0.060550274015222089, -3.2324588788805446e-06]}
    - {mu0: 0, rank: 2, ndensity: 2, num_ms_combs: 3, mus: [1, 1], ns: [1, 1], ls: [2, 2], ms_combs: [0, 0, 1, -1, 2, -2], ctildes: [-2.7056495338223521e-06, 2.1417175836613099e-07, 5.4112990676447042e-06, -4.2834351673226203e-07, -5.4112990676447059e-06, 4.2834351673226213e-07]}
    - {mu0: 0, rank: 2, ndensity: 2, num_ms_combs: 1, mus: [1, 1], ns: [1, 2], ls: [0, 0], ms_combs: [0, 0], ctildes: [-0.013463307814037418, 0.35755501723232896]}
    - {mu0: 0, rank: 2, ndensity: 2, num_ms_combs: 2, mus: [1, 1], ns: [1, 2], ls: [1, 1], ms_combs: [0, 0, 1, -1], ctildes: [3.7044178897621522, 0.099838164701024718, -7.4088357795243036, -0.19967632940204941]}
    - {mu0: 0, rank: 2, ndensity: 2, num_ms_combs: 3, mus: [1, 1], ns: [1, 2], ls: [2, 2], ms_combs: [0, 0, 1, -1, 2, -2], ctildes: [2.1720911553772226, 0.073310651862221785, -4.3441823107544462, -0.14662130372444357, 4.3441823107544471, 0.14662130372444362]}
    - {mu0: 0, rank: 2, ndensity: 2, num_ms_combs: 1, mus: [1, 1], ns: [1, 3], ls: [0, 0], ms_combs: [0, 0], ctildes: [0.20906260343043079, 2.1147585566225366]}
    - {mu0: 0, rank: 2, ndensity: 2, num_ms_combs: 2, mus: [1, 1], ns: [1, 3], ls: [1, 1], ms_combs: [0, 0, 1, -1], ctildes: [-0.64412720928726586, -0.0057967601233678582, 1.2882544185745315, 0.011593520246735715]}
    - {mu0: 0, rank: 2, ndensity: 2, num_ms_combs: 3, mus: [1, 1], ns: [1, 3], ls: [2, 2], ms_combs: [0, 0, 1, -1, 2, -2], ctildes: [1.5584086615926023, 0.055655024973948856, -3.116817323185205, -0.11131004994789773, 3.1168173231852054, 0.11131004994789775]}
    - {mu0: 0, rank: 2, ndensity: 2, num_ms_combs: 1, mus: [1, 1], ns: [2, 2], ls: [0, 0], ms_combs: [0, 0], ctildes: [0.0011979176321709525, -0.032907359240547669]}
    - {mu0: 0, rank: 2, ndensity: 2, num_ms_combs: 2, mus: [1, 1], ns: [2, 2], ls: [1, 1], ms_combs: [0, 0, 1, -1], ctildes: [-0.0020957862355476852, 0.020433743329703848, 0.0041915724710953695, -0.040867486659407683]}
    - {mu0: 0, rank: 2, ndensity: 2, num_ms_combs: 3, mus: [1, 1], ns: [2, 2], ls: [2, 2], ms_combs: [0, 0, 1, -1, 2, -2], ctildes: [0.0022697106579219911, -0.019820529479278214, -0.004539421315843983, 0.039641058958556435, 0.0045394213158439839, -0.039641058958556442]}
    - {mu0: 0, rank: 2, ndensity: 2, num_ms_combs: 1, mus: [1, 1], ns: [2, 3], ls: [0, 0], ms_combs: [0, 0], ctildes: [0.0028136622410904052, -0.37211716568237774]}
    - {mu0: 0, rank: 2, ndensity: 2, num_ms_combs: 2, mus: [1, 1], ns: [2, 3], ls: [1, 1], ms_combs: [0, 0, 1, -1], ctildes: [6.6974925009736762e-05, -0.011170733377703026, -0.0001339498500194735, 0.022341466755406048]}
    - {mu0: 0, rank: 2, ndensity: 2, num_ms_combs: 3, mus: [1, 1], ns: [2, 3], ls: [2, 2], ms_combs: [0, 0, 1, -1, 2, -2], ctildes: [0.0035494586938177729, -0.098926914395426807, -0.0070989173876355467, 0.19785382879085364, 0.0070989173876355484, -0.19785382879085367]}
    - {mu0: 0, rank: 2, ndensity: 2, num_ms_combs: 1, mus: [1, 1], ns: [3, 3], ls: [0, 0], ms_combs: [0, 0], ctildes: [0.065382659295602344, -0.95239588391558461]}
    - {mu0: 0, rank: 2, ndensity: 2, num_ms_combs: 2, mus: [1, 1], ns: [3, 3], ls: [1, 1], ms_combs: [0, 0, 1, -1], ctildes: [0.00070839588872381482, -0.013685700765441955, -0.0014167917774476292, 0.027371401530883903]}
    - {mu0: 0, rank: 2, ndensity: 2, num_ms_combs: 1, mus: [1, 2], ns: [1, 1], ls: [0, 0], ms_combs: [0, 0], ctildes: [0.19154388867777231, -2.640111692376633]}
    - {mu0: 0, rank: 2, ndensity: 2, num_ms_combs: 2, mus: [1, 2], ns: [1, 1], ls: [1, 1], ms_combs: [0, 0, 1, -1], ctildes: [0.1124248407168191, -1.206847156955277, -0.22484968143363818, 2.4136943139105536]}
    - {mu0: 0, rank: 2, ndensity: 2, num_ms_combs: 3, mus: [1, 2], ns: [1, 1], ls: [2, 2], ms_combs: [0, 0, 1, -1, 2, -2], ctildes: [-2.5242878158469995, -0.00071393939909550038, 5.0485756316939998, 0.0014278787981910008, -5.0485756316940007, -0.0014278787981910012]}
    - {mu0: 0, rank: 2, ndensity: 2, num_ms_combs: 1, mus: [1, 2], ns: [1, 2], ls: [0, 0], ms_combs: [0, 0], ctildes: [0.051572514115688521, -0.16728647637757346]}
    - {mu0: 0, rank: 2, ndensity: 2, num_ms_combs: 2, mus: [1, 2], ns: [1, 2], ls: [1, 1], ms_combs: [0, 0, 1, -1], ctildes: [3.0719074241161297, 1.0563820361203546, -6.1438148482322585, -2.1127640722407088]}
    - {mu0: 0, rank: 2, ndensity: 2, num_ms_combs: 3, mus: [1, 2], ns: [1, 2], ls: [2, 2], ms_combs: [0, 0, 1, -1, 2, -2], ctildes: [0.65073752288184916, 0.077371156005633795, -1.3014750457636985, -0.15474231201126762, 1.3014750457636988, 0.15474231201126765]}
    - {mu0: 0, rank: 2, ndensity: 2, num_ms_combs: 1, mus: [1, 2], ns: [1, 3], ls: [0, 0], ms_combs: [0, 0], ctildes: [0.022043675418552344, 0.05574845632647913]}
    - {mu0: 0, rank: 2, ndensity: 2, num_ms_combs: 2, mus: [1, 2], ns: [1, 3], ls: [1, 1], ms_combs: [0, 0, 1, -1], ctildes: [1.2755439301367881, 3.5105541542114174, -2.5510878602735754, -7.0211083084228338]}
    - {mu0: 0, rank: 2, ndensity: 2, num_ms_combs: 3, mus: [1, 2], ns: [1, 3], ls: [2, 2], ms_combs: [0, 0, 1, -1, 2, -2], ctildes: [0.64207107003342578, -0.12062434619030872, -1.2841421400668518, 0.24124869238061747, 1.284142140066852, -0.24124869238061752]}
    - {mu0: 0, rank: 2, ndensity: 2, num_ms_combs: 1, mus: [1, 2], ns: [2, 1], ls: [0, 0], ms_combs: [0, 0], ctildes: [0.0067445890650813713, -0.0045947565002146008]}
    - {mu0: 0, rank: 2, ndensity: 2, num_ms_combs: 2, mus: [1, 2], ns: [2, 1], ls: [1, 1], ms_combs: [0, 0, 1, -1], ctildes: [1.4840095424100497, 0.02090264724074764, -2.9680190848200989, -0.041805294481495267]}
    - {mu0: 0, rank: 2, ndensity: 2, num_ms_combs: 3, mus: [1, 2], ns: [2, 1], ls: [2, 2], ms_combs: [0, 0, 1, -1, 2, -2], ctildes: [0.0066811332145041858, -0.13280946183908296, -0.013362266429008373, 0.26561892367816592, 0.013362266429008377, -0.26561892367816603]}
    - {mu0: 0, rank: 2, ndensity: 2, num_ms_combs: 1, mus: [1, 2], ns: [2, 2], ls: [0, 0], ms_combs: [0, 0], ctildes: [-0.00044775240990676835, -0.051968359924097263]}
    - {mu0: 0, rank: 2, ndensity: 2, num_ms_combs: 2, mus: [1, 2], ns: [2, 2], ls: [1, 1], ms_combs: [0, 0, 1, -1], ctildes: [-0.0016690121826789604, -0.00013960442136696306, 0.0033380243653579203, 0.00027920884273392607]}
    - {mu0: 0, rank: 2, ndensity: 2, num_ms_combs: 3, mus: [1, 2], ns: [2, 2], ls: [2, 2], ms_combs: [0, 0, 1, -1, 2, -2], ctildes: [0.0016019032362406063, -0.053554803389162617, -0.003203806472481213, 0.10710960677832525, 0.0032038064724812135, -0.10710960677832528]}
    - {mu0: 0, rank: 2, ndensity: 2, num_ms_combs: 1, mus: [1, 2], ns: [2, 3], ls: [0, 0], ms_combs: [0, 0], ctildes: [0.0024249627532555999, -0.088917640716336871]}
    - {mu0: 0, rank: 2, ndensity: 2, num_ms_combs: 2, mus: [1, 2], ns: [2, 3], ls: [1, 1], ms_combs: [0, 0, 1, -1], ctildes: [-0.00076214087819647606, -0.012572292995449385, 0.0015242817563929519, 0.025144585990898763]}
    - {mu0: 0, rank: 2, ndensity: 2, num_ms_combs: 1, mus: [1, 2], ns: [3, 1], ls: [0, 0], ms_combs: [0, 0], ctildes: [0.10989059078869835, -0.34678011822787169]}
    - {mu0: 0, rank: 2, ndensity: 2, num_ms_combs: 2, mus: [1, 2], ns: [3, 1], ls: [1, 1], ms_combs: [0, 0, 1, -1], ctildes: [-1.0913600589546544, -0.032345549619322123, 2.1827201179093083, 0.064691099238644245]}
    - {mu0: 0, rank: 2, ndensity: 2, num_ms_combs: 3, mus: [1, 2], ns: [3, 1], ls: [2, 2], ms_combs: [0, 0, 1, -1, 2, -2], ctildes: [-0.00012991095061358493, 0.14534686857490403, 0.00025982190122716991, -0.29069373714980812, -0.00025982190122716996, 0.29069373714980817]}
    - {mu0: 0, rank: 2, ndensity: 2, num_ms_combs: 1, mus: [1, 2], ns: [3, 2], ls: [0, 0], ms_combs: [0, 0], ctildes: [0.033788338837477144, -0.8098934750040766]}
    - {mu0: 0, rank: 2, ndensity: 2, num_ms_combs: 2, mus: [1, 2], ns: [3, 2], ls: [1, 1], ms_combs: [0, 0, 1, -1], ctildes: [0.0011478245949383687, -0.025719792370629914, -0.002295649189876737, 0.051439584741259821]}
    - {mu0: 0, rank: 2, ndensity: 2, num_ms_combs: 1, mus: [1, 2], ns: [3, 3], ls: [0, 0], ms_combs: [0, 0], ctildes: [0.05681969566042748, -1.2762887865405663]}
    - {mu0: 0, rank: 2, ndensity: 2, num_ms_combs: 2, mus: [1, 2], ns: [3, 3], ls: [1, 1], ms_combs: [0, 0, 1, -1], ctildes: [0.00045869896833971896, 0.0001401346807652344, -0.00091739793667943781, -0.00028026936153046874]}
    - {mu0: 0, rank: 2, ndensity: 2, num_ms_combs: 1, mus: [1, 3], ns: [1, 1], ls: [0, 0], ms_combs: [0, 0], ctildes: [0.23136757109315356, 0.42868109062062476]}
    - {mu0: 0, rank: 2, ndensity: 2, num_ms_combs: 2, mus: [1, 3], ns: [1, 1], ls: [1, 1], ms_combs: [0, 0, 1, -1], ctildes: [-4.8087843122961704, -0.89170237360414706, 9.6175686245923391, 1.7834047472082937]}
    - {mu0: 0, rank: 2, ndensity: 2, num_ms_combs: 3, mus: [1, 3], ns: [1, 1], ls: [2, 2], ms_combs: [0, 0, 1, -1, 2, -2], ctildes: [0.68630876930331008, -0.26033860433034245, -1.3726175386066204, 0.5206772086606849, 1.3726175386066206, -0.52067720866068512]}
    - {mu0: 0, rank: 2, ndensity: 2, num_ms_combs: 1, mus: [1, 3], ns: [1, 2], ls: [0, 0], ms_combs: [0, 0], ctildes: [0.010422208412856982, -0.61602656636752151]}
    - {mu0: 0, rank: 2, ndensity: 2, num_ms_combs: 2, mus: [1, 3], ns: [1, 2], ls: [1, 1], ms_combs: [0, 0, 1, -1], ctildes: [0.07583273106669404, 0.1727541609993791, -0.15166546213338805, -0.34550832199875814]}
    - {mu0: 0, rank: 2, ndensity: 2, num_ms_combs: 3, mus: [1, 3], ns: [1, 2], ls: [2, 2], ms_combs: [0, 0, 1, -1, 2, -2], ctildes: [0.44458849022651853, -0.1846778494683049, -0.88917698045303717, 0.3693556989366098, 0.88917698045303739, -0.36935569893660991]}
    - {mu0: 0, rank: 2, ndensity: 2, num_ms_combs: 1, mus: [1, 3], ns: [1, 3], ls: [0, 0], ms_combs: [0, 0], ctildes: [-0.018436805271465996, 0.27547799217103536]}
    - {mu0: 0, rank: 2, ndensity: 2, num_ms_combs: 2, mus: [1, 3], ns: [1, 3], ls: [1, 1], ms_combs: [0, 0, 1, -1], ctildes: [0.35338707073316333, 1.083760026873428, -0.70677414146632656, -2.1675200537468555]}
    - {mu0: 0, rank: 2, ndensity: 2, num_ms_combs: 3, mus: [1, 3], ns: [1, 3], ls: [2, 2], ms_combs: [0, 0, 1, -1, 2, -2], ctildes: [0.088157376559552442, 0.42886804045699434, -0.17631475311910491, -0.85773608091398879, 0.17631475311910497, 0.85773608091398901]}
    - {mu0: 0, rank: 2, ndensity: 2, num_ms_combs: 1, mus: [1, 3], ns: [2, 1], ls: [0, 0], ms_combs: [0, 0], ctildes: [0.011334997950271004, -0.51253792026780298]}
    - {mu0: 0, rank: 2, ndensity: 2, num_ms_combs: 2, mus: [1, 3], ns: [2, 1], ls: [1, 1], ms_combs: [0, 0, 1, -1], ctildes: [2.8326072352534024, 0.064454035190846373, -5.6652144705068039, -0.12890807038169272]}
    - {mu0: 0, rank: 2, ndensity: 2, num_ms_combs: 3, mus: [1, 3], ns: [2, 1], ls: [2, 2], ms_combs: [0, 0, 1, -1, 2, -2], ctildes: [0.44838870846045586, -0.0082721350812924917, -0.89677741692091184, 0.016544270162584987, 0.89677741692091206, -0.01654427016258499]}
    - {mu0: 0, rank: 2, ndensity: 2, num_ms_combs: 1, mus: [1, 3], ns: [2, 2], ls: [0, 0], ms_combs: [0, 0], ctildes: [-0.0035014982966782631, 0.11018033312564376]}
    - {mu0: 0, rank: 2, ndensity: 2, num_ms_combs: 2, mus: [1, 3], ns: [2, 2], ls: [1, 1], ms_combs: [0, 0, 1, -1], ctildes: [-0.0027607364162951999, 0.054585696550146549, 0.0055214728325903989, -0.10917139310029308]}
    - {mu0: 0, rank: 2, ndensity: 2, num_ms_combs: 3, mus: [1, 3], ns: [2, 2], ls: [2, 2], ms_combs: [0, 0, 1, -1, 2, -2], ctildes: [-0.00020278327288562442, 0.020333882411916575, 0.00040556654577124889, -0.040667764823833157, -0.00040556654577124899, 0.040667764823833163]}
    - {mu0: 0, rank: 2, ndensity: 2, num_ms_combs: 1, mus: [1, 3], ns: [2, 3], ls: [0, 0], ms_combs: [0, 0], ctildes: [-0.001179404267976194, 0.036864894412507551]}
    - {mu0: 0, rank: 2, ndensity: 2, num_ms_combs: 2, mus: [1, 3], ns: [2, 3], ls: [1, 1], ms_combs: [0, 0, 1, -1], ctildes: [0.00086242570795094591, -0.033278296237787941, -0.0017248514159018914, 0.066556592475575868]}
    - {mu0: 0, rank: 2, ndensity: 2, num_ms_combs: 1, mus: [1, 3], ns: [3, 1], ls: [0, 0], ms_combs: [0, 0], ctildes: [0.12216302043294423, -0.49387322067331701]}
    - {mu0: 0, rank: 2, ndensity: 2, num_ms_combs: 2, mus: [1, 3], ns: [3, 1], ls: [1, 1], ms_combs: [0, 0, 1, -1], ctildes: [1.3988066370895078, 0.018787066698041768, -2.7976132741790147, -0.03757413339608353]}
    - {mu0: 0, rank: 2, ndensity: 2, num_ms_combs: 3, mus: [1, 3], ns: [3, 1], ls: [2, 2], ms_combs: [0, 0, 1, -1, 2, -2], ctildes: [0.1896838280922615, 0.0032935482417567989, -0.37936765618452306, -0.0065870964835135987, 0.37936765618452312, 0.0065870964835135996]}
    - {mu0: 0, rank: 2, ndensity: 2, num_ms_combs: 1, mus: [1, 3], ns: [3, 2], ls: [0, 0], ms_combs: [0, 0], ctildes: [-0.018410684782076761, 0.23487492224345563]}
    - {mu0: 0, rank: 2, ndensity: 2, num_ms_combs: 2, mus: [1, 3], ns: [3, 2], ls: [1, 1], ms_combs: [0, 0, 1, -1], ctildes: [0.0004263373698706983, -0.029641296720945721, -0.00085267473974139638, 0.059282593441891435]}
    - {mu0: 0, rank: 2, ndensity: 2, num_ms_combs: 1, mus: [1, 3], ns: [3, 3], ls: [0, 0], ms_combs: [0, 0], ctildes: [-0.037004263138094393, 0.85113548134341399]}
    - {mu0: 0, rank: 2, ndensity: 2, num_ms_combs: 2, mus: [1, 3], ns: [3, 3], ls: [1, 1], ms_combs: [0, 0, 1, -1], ctildes: [0.0021237596868609568, -0.040741876347701107, -0.0042475193737219127, 0.081483752695402201]}
    - {mu0: 0, rank: 2, ndensity: 2, num_ms_combs: 1, mus: [2, 2], ns: [1, 1], ls: [0, 0], ms_combs: [0, 0], ctildes: [0.082244245191920945, -1.7513888014513157]}
    - {mu0: 0, rank: 2, ndensity: 2, num_ms_combs: 2, mus: [2, 2], ns: [1, 1], ls: [1, 1], ms_combs: [0, 0, 1, -1], ctildes: [-0.14349584234610513, 3.6418107131214677e-07, 0.2869916846922102, -7.2836214262429344e-07]}
    - {mu0: 0, rank: 2, ndensity: 2, num_ms_combs: 3, mus: [2, 2], ns: [1, 1], ls: [2, 2], ms_combs: [0, 0, 1, -1, 2, -2], ctildes: [0.037727355153274571, -1.06189799583876, -0.075454710306549155, 2.12379599167752, 0.075454710306549169, -2.1237959916775209]}
    - {mu0: 0, rank: 2, ndensity: 2, num_ms_combs: 1, mus: [2, 2], ns: [1, 2], ls: [0, 0], ms_combs: [0, 0], ctildes: [0.016900523591388907, -0.23242774232079386]}
    - {mu0: 0, rank: 2, ndensity: 2, num_ms_combs: 2, mus: [2, 2], ns: [1, 2], ls: [1, 1], ms_combs: [0, 0, 1, -1], ctildes: [1.9431812957723553, 0.12319405545120325, -3.8863625915447102, -0.24638811090240645]}
    - {mu0: 0, rank: 2, ndensity: 2, num_ms_combs: 3, mus: [2, 2], ns: [1, 2], ls: [2, 2], ms_combs: [0, 0, 1, -1, 2, -2], ctildes: [-0.013738665105594846, 0.46859270918438811, 0.027477330211189695, -0.93718541836877634, -0.027477330211189702, 0.93718541836877656]}
    - {mu0: 0, rank: 2, ndensity: 2, num_ms_combs: 1, mus: [2, 2], ns: [1, 3], ls: [0, 0], ms_combs: [0, 0], ctildes: [0.022291142106251105, -0.46862040528707483]}
    - {mu0: 0, rank: 2, ndensity: 2, num_ms_combs: 2, mus: [2, 2], ns: [1, 3], ls: [1, 1], ms_combs: [0, 0, 1, -1], ctildes: [-1.0497229838297986, -0.02316686521462178, 2.0994459676595967, 0.046333730429243554]}
    - {mu0: 0, rank: 2, ndensity: 2, num_ms_combs: 3, mus: [2, 2], ns: [1, 3], ls: [2, 2], ms_combs: [0, 0, 1, -1, 2, -2], ctildes: [0.022793572257987473, -0.74601435015254003, -0.045587144515974946, 1.4920287003050801, 0.04558714451597496, -1.4920287003050805]}
    - {mu0: 0, rank: 2, ndensity: 2, num_ms_combs: 1, mus: [2, 2], ns: [2, 2], ls: [0, 0], ms_combs: [0, 0], ctildes: [0.0014222118852022559, -0.037350435256102994]}
    - {mu0: 0, rank: 2, ndensity: 2, num_ms_combs: 2, mus: [2, 2], ns: [2, 2], ls: [1, 1], ms_combs: [0, 0, 1, -1], ctildes: [0.0011225212459380093, -0.063427492734814961, -0.0022450424918760183, 0.12685498546962992]}
    - {mu0: 0, rank: 2, ndensity: 2, num_ms_combs: 3, mus: [2, 2], ns: [2, 2], ls: [2, 2], ms_combs: [0, 0, 1, -1, 2, -2], ctildes: [0.0029960665967750707, -0.1055304919593939, -0.0059921331935501414, 0.21106098391878783, 0.0059921331935501431, -0.21106098391878789]}
    - {mu0: 0, rank: 2, ndensity: 2, num_ms_combs: 1, mus: [2, 2], ns: [2, 3], ls: [0, 0], ms_combs: [0, 0], ctildes: [0.0039397689920070561, -0.098639707159548839]}
    - {mu0: 0, rank: 2, ndensity: 2, num_ms_combs: 2, mus: [2, 2], ns: [2, 3], ls: [1, 1], ms_combs: [0, 0, 1, -1], ctildes: [-0.0009164625327611046, 0.034118945334942377, 0.001832925065522209, -0.06823789066988474]}
    - {mu0: 0, rank: 2, ndensity: 2, num_ms_combs: 3, mus: [2, 2], ns: [2, 3], ls: [2, 2], ms_combs: [0, 0, 1, -1, 2, -2], ctildes: [-0.0037853108111330575, 0.14901481744550304, 0.0075706216222661158, -0.29802963489100615, -0.0075706216222661176, 0.2980296348910062]}
    - {mu0: 0, rank: 2, ndensity: 2, num_ms_combs: 1, mus: [2, 2], ns: [3, 3], ls: [0, 0], ms_combs: [0, 0], ctildes: [0.0041017999966719209, -0.10183347148794904]}
    - {mu0: 0, rank: 2, ndensity: 2, num_ms_combs: 2, mus: [2, 2], ns: [3, 3], ls: [1, 1], ms_combs: [0, 0, 1, -1], ctildes: [0.00066382264444956522, -0.02119276808403079, -0.0013276452888991302, 0.042385536168061573]}
    - {mu0: 0, rank: 2, ndensity: 2, num_ms_combs: 1, mus: [2, 3], ns: [1, 1], ls: [0, 0], ms_combs: [0, 0], ctildes: [0.13022228799559826, -2.6543290512461595]}
    - {mu0: 0, rank: 2, ndensity: 2, num_ms_combs: 2, mus: [2, 3], ns: [1, 1], ls: [1, 1], ms_combs: [0, 0, 1, -1], ctildes: [-1.9242952224376852, -1.0840630329014644, 3.8485904448753701, 2.1681260658029284]}
    - {mu0: 0, rank: 2, ndensity: 2, num_ms_combs: 3, mus: [2, 3], ns: [1, 1], ls: [2, 2], ms_combs: [0, 0, 1, -1, 2, -2], ctildes: [-3.9523601050099786, -0.78180275373608044, 7.9047202100199581, 1.5636055074721611, -7.9047202100199598, -1.5636055074721613]}
    - {mu0: 0, rank: 2, ndensity: 2, num_ms_combs: 1, mus: [2, 3], ns: [1, 2], ls: [0, 0], ms_combs: [0, 0], ctildes: [-0.0095419580851057346, 0.2659921662311287]}
    - {mu0: 0, rank: 2, ndensity: 2, num_ms_combs: 2, mus: [2, 3], ns: [1, 2], ls: [1, 1], ms_combs: [0, 0, 1, -1], ctildes: [3.131724855738379, -0.44423475997114203, -6.2634497114767571, 0.88846951994228385]}
    - {mu0: 0, rank: 2, ndensity: 2, num_ms_combs: 3, mus: [2, 3], ns: [1, 2], ls: [2, 2], ms_combs: [0, 0, 1, -1, 2, -2], ctildes: [-0.011388218476677953, 0.15632422294964662, 0.022776436953355909, -0.31264844589929325, -0.022776436953355916, 0.31264844589929336]}
    - {mu0: 0, rank: 2, ndensity: 2, num_ms_combs: 1, mus: [2, 3], ns: [1, 3], ls: [0, 0], ms_combs: [0, 0], ctildes: [-0.012521263146672618, 0.2703390802647419]}
    - {mu0: 0, rank: 2, ndensity: 2, num_ms_combs: 2, mus: [2, 3], ns: [1, 3], ls: [1, 1], ms_combs: [0, 0, 1, -1], ctildes: [-2.3642188605041015, 0.98585347336272866, 4.728437721008202, -1.9717069467254569]}
    - {mu0: 0, rank: 2, ndensity: 2, num_ms_combs: 3, mus: [2, 3], ns: [1, 3], ls: [2, 2], ms_combs: [0, 0, 1, -1, 2, -2], ctildes: [0.0024831555849838347, -0.059652212334345096, -0.0049663111699676694, 0.11930442466869021, 0.0049663111699676712, -0.11930442466869023]}
    - {mu0: 0, rank: 2, ndensity: 2, num_ms_combs: 1, mus: [2, 3], ns: [2, 1], ls: [0, 0], ms_combs: [0, 0], ctildes: [0.021978144810829135, -0.49618656712944786]}
    - {mu0: 0, rank: 2, ndensity: 2, num_ms_combs: 2, mus: [2, 3], ns: [2, 1], ls: [1, 1], ms_combs: [0, 0, 1, -1], ctildes: [-0.42996597409145615, -0.027246817734251395, 0.85993194818291219, 0.054493635468502777]}
    - {mu0: 0, rank: 2, ndensity: 2, num_ms_combs: 3, mus: [2, 3], ns: [2, 1], ls: [2, 2], ms_combs: [0, 0, 1, -1, 2, -2], ctildes: [0.73327328133149716, 0.041235421539161286, -1.4665465626629943, -0.082470843078322573, 1.4665465626629948, 0.0824708430783226]}
    - {mu0: 0, rank: 2, ndensity: 2, num_ms_combs: 1, mus: [2, 3], ns: [2, 2], ls: [0, 0], ms_combs: [0, 0], ctildes: [-0.0018336328075506455, 0.05430598468906056]}
    - {mu0: 0, rank: 2, ndensity: 2, num_ms_combs: 2, mus: [2, 3], ns: [2, 2], ls: [1, 1], ms_combs: [0, 0, 1, -1], ctildes: [0.00030291046585688295, -0.056871092098539855, -0.00060582093171376579, 0.11374218419707968]}
    - {mu0: 0, rank: 2, ndensity: 2, num_ms_combs: 3, mus: [2, 3], ns: [2, 2], ls: [2, 2], ms_combs: [0, 0, 1, -1, 2, -2], ctildes: [0.0018051707176567247, -0.025806692495403613, -0.0036103414353134498, 0.051613384990807233, 0.0036103414353134506, -0.051613384990807247]}
    - {mu0: 0, rank: 2, ndensity: 2, num_ms_combs: 1, mus: [2, 3], ns: [2, 3], ls: [0, 0], ms_combs: [0, 0], ctildes: [-0.0023119721412305895, 0.055404805700349898]}
    - {mu0: 0, rank: 2, ndensity: 2, num_ms_combs: 2, mus: [2, 3], ns: [2, 3], ls: [1, 1], ms_combs: [0, 0, 1, -1], ctildes: [0.0014474413497256122, 0.0036031994628281292, -0.002894882699451224, -0.0072063989256562575]}
    - {mu0: 0, rank: 2, ndensity: 2, num_ms_combs: 1, mus: [2, 3], ns: [3, 1], ls: [0, 0], ms_combs: [0, 0], ctildes: [0.016450376512488839, -0.29039469248835942]}
    - {mu0: 0, rank: 2, ndensity: 2, num_ms_combs: 2, mus: [2, 3], ns: [3, 1], ls: [1, 1], ms_combs: [0, 0, 1, -1], ctildes: [1.2012247881391365, 0.0054449900488655906, -2.4024495762782725, -0.010889980097731178]}
    - {mu0: 0, rank: 2, ndensity: 2, num_ms_combs: 3, mus: [2, 3], ns: [3, 1], ls: [2, 2], ms_combs: [0, 0, 1, -1, 2, -2], ctildes: [-0.20218847693507402, -0.0018345969432797932, 0.4043769538701481, 0.0036691938865595869, -0.40437695387014821, -0.0036691938865595877]}
    - {mu0: 0, rank: 2, ndensity: 2, num_ms_combs: 1, mus: [2, 3], ns: [3, 2], ls: [0, 0], ms_combs: [0, 0], ctildes: [-0.002331665422661517, 0.045412163365462228]}
    - {mu0: 0, rank: 2, ndensity: 2, num_ms_combs: 2, mus: [2, 3], ns: [3, 2], ls: [1, 1], ms_combs: [0, 0, 1, -1], ctildes: [-0.00083552280432030415, 0.013073699758331126, 0.0016710456086406081, -0.026147399516662246]}
    - {mu0: 0, rank: 2, ndensity: 2, num_ms_combs: 1, mus: [2, 3], ns: [3, 3], ls: [0, 0], ms_combs: [0, 0], ctildes: [-0.0042471626920931324, 0.097852469972296255]}
    - {mu0: 0, rank: 2, ndensity: 2, num_ms_combs: 2, mus: [2, 3], ns: [3, 3], ls: [1, 1], ms_combs: [0, 0, 1, -1], ctildes: [0.0018847780614119206, -0.046557724078231763, -0.0037695561228238404, 0.093115448156463512]}
    - {mu0: 0, rank: 2, ndensity: 2, num_ms_combs: 1, mus: [3, 3], ns: [1, 1], ls: [0, 0], ms_combs: [0, 0], ctildes: [0.11410571196163082, -1.2855312375259562]}
    - {mu0: 0, rank: 2, ndensity: 2, num_ms_combs: 2, mus: [3, 3], ns: [1, 1], ls: [1, 1], ms_combs: [0, 0, 1, -1], ctildes: [0.48924581453788324, -7.1570786366289407e-05, -0.97849162907576626, 0.00014314157273257879]}
    - {mu0: 0, rank: 2, ndensity: 2, num_ms_combs: 3, mus: [3, 3], ns: [1, 1], ls: [2, 2], ms_combs: [0, 0, 1, -1, 2, -2], ctildes: [1.1002348420006947, 0.0093328286642696111, -2.2004696840013898, -0.018665657328539226, 2.2004696840013902, 0.018665657328539229]}
    - {mu0: 0, rank: 2, ndensity: 2, num_ms_combs: 1, mus: [3, 3], ns: [1, 2], ls: [0, 0], ms_combs: [0, 0], ctildes: [-0.035125494884141559, 0.40324361327207403]}
    - {mu0: 0, rank: 2, ndensity: 2, num_ms_combs: 2, mus: [3, 3], ns: [1, 2], ls: [1, 1], ms_combs: [0, 0, 1, -1], ctildes: [-0.91570570424972231, 0.21126859802960662, 1.8314114084994444, -0.42253719605921319]}
    - {mu0: 0, rank: 2, ndensity: 2, num_ms_combs: 3, mus: [3, 3], ns: [1, 2], ls: [2, 2], ms_combs: [0, 0, 1, -1, 2, -2], ctildes: [0.20521914234969796, 0.042039683688505587, -0.41043828469939597, -0.084079367377011188, 0.41043828469939608, 0.084079367377011202]}
    - {mu0: 0, rank: 2, ndensity: 2, num_ms_combs: 1, mus: [3, 3], ns: [1, 3], ls: [0, 0], ms_combs: [0, 0], ctildes: [-0.013771504487497413, 0.30757801670157947]}
    - {mu0: 0, rank: 2, ndensity: 2, num_ms_combs: 2, mus: [3, 3], ns: [1, 3], ls: [1, 1], ms_combs: [0, 0, 1, -1], ctildes: [0.94772434288833218, 0.035144566822656972, -1.8954486857766641, -0.070289133645313931]}
    - {mu0: 0, rank: 2, ndensity: 2, num_ms_combs: 3, mus: [3, 3], ns: [1, 3], ls: [2, 2], ms_combs: [0, 0, 1, -1, 2, -2], ctildes: [-0.062679740618574981, -0.15223502181231252, 0.12535948123714999, 0.3044700436246251, -0.12535948123715002, -0.30447004362462515]}
    - {mu0: 0, rank: 2, ndensity: 2, num_ms_combs: 1, mus: [3, 3], ns: [2, 2], ls: [0, 0], ms_combs: [0, 0], ctildes: [0.0028315673421458105, -0.030152516061446276]}
    - {mu0: 0, rank: 2, ndensity: 2, num_ms_combs: 2, mus: [3, 3], ns: [2, 2], ls: [1, 1], ms_combs: [0, 0, 1, -1], ctildes: [0.00044820211274480603, -0.020056911720548975, -0.00089640422548961185, 0.040113823441097943]}
    - {mu0: 0, rank: 2, ndensity: 2, num_ms_combs: 3, mus: [3, 3], ns: [2, 2], ls: [2, 2], ms_combs: [0, 0, 1, -1, 2, -2], ctildes: [0.00069121211356069575, -0.014284243182090591, -0.0013824242271213915, 0.028568486364181186, 0.0013824242271213919, -0.028568486364181193]}
    - {mu0: 0, rank: 2, ndensity: 2, num_ms_combs: 1, mus: [3, 3], ns: [2, 3], ls: [0, 0], ms_combs: [0, 0], ctildes: [0.0017274972455707024, -0.040903910037344657]}
    - {mu0: 0, rank: 2, ndensity: 2, num_ms_combs: 2, mus: [3, 3], ns: [2, 3], ls: [1, 1], ms_combs: [0, 0, 1, -1], ctildes: [-0.00022791122815459989, 0.0056439840497406997, 0.00045582245630919967, -0.011287968099481396]}
    - {mu0: 0, rank: 2, ndensity: 2, num_ms_combs: 3, mus: [3, 3], ns: [2, 3], ls: [2, 2], ms_combs: [0, 0, 1, -1, 2, -2], ctildes: [-0.00022501239877970787, 0.0087240459696900103, 0.00045002479755941579, -0.017448091939380024, -0.0004500247975594159, 0.017448091939380028]}
    - {mu0: 0, rank: 2, ndensity: 2, num_ms_combs: 1, mus: [3, 3], ns: [3, 3], ls: [0, 0], ms_combs: [0, 0], ctildes: [0.00085071152209209881, -0.020101213234321125]}
    - {mu0: 0, rank: 2, ndensity: 2, num_ms_combs: 2, mus: [3, 3], ns: [3, 3], ls: [1, 1], ms_combs: [0, 0, 1, -1], ctildes: [0.0012291930576996261, -0.028827857904576117, -0.0024583861153992517, 0.057655715809152221]}
    - {mu0: 0, rank: 3, ndensity: 2, num_ms_combs: 1, mus: [0, 0, 0], ns: [1, 1, 1], ls: [0, 0, 0], ms_combs: [0, 0, 0], ctildes: [1.3204039967149049e-06, -2.8175070930869316e-05]}
    - {mu0: 0, rank: 3, ndensity: 2, num_ms_combs: 2, mus: [0, 0, 0], ns: [1, 1, 1], ls: [0, 1, 1], ms_combs: [0, 0, 0, 0, 1, -1], ctildes: [-2.3037703319939418e-05, 0.0011783174530898561, 4.6075406639878828e-05, -0.0023566349061797118]}
    - {mu0: 0, rank: 3, ndensity: 2, num_ms_combs: 3, mus: [0, 0, 0], ns: [1, 1, 1], ls: [0, 2, 2], ms_combs: [0, 0, 0, 0, 1, -1, 0, 2, -2], ctildes: [8.85417481739992e-05, 0.00019645979176925545, -0.0001770834963479984, -0.00039291958353851095, 0.00017708349634799845, 0.00039291958353851101]}
    - {mu0: 0, rank: 3, ndensity: 2, num_ms_combs: 4, mus: [0, 0, 0], ns: [1, 1, 1], ls: [1, 1, 2], ms_combs: [-1, 1, 0, 0, 0, 0, 0, 1, -1, 1, 1, -2], ctildes: [1.4289903418203947e-05, -0.00062869350179392894, 1.4289903418203946e-05, -0.00062869350179392883, -4.9501677511162819e-05, 0.0021778581749909605, 3.5002971848252855e-05, -0.001539978283998667]}
    - {mu0: 0, rank: 3, ndensity: 2, num_ms_combs: 5, mus: [0, 0, 0], ns: [1, 1, 1], ls: [2, 2, 2], ms_combs: [-2, 0, 2, -2, 1, 1, -1, -1, 2, -1, 0, 1, 0, 0, 0], ctildes: [-6.354505929804178e-05, 0.024400802107048127, 5.1884323651700716e-05, -0.019923171492298847, 2.5942161825850358e-05, -0.0099615857461494237, -3.1772529649020883e-05, 0.01220040105352406, 1.0590843216340293e-05, -0.0040668003511746863]}
    - {mu0: 0, rank: 3, ndensity: 2, num_ms_combs: 1, mus: [0, 0, 0], ns: [1, 1, 2], ls: [0, 0, 0], ms_combs: [0, 0, 0], ctildes: [4.1957567274159484e-07, -4.0132318694484493e-05]}
    - {mu0: 0, rank: 3, ndensity: 2, num_ms_combs: 2, mus: [0, 0, 0], ns: [1, 1, 2], ls: [0, 1, 1], ms_combs: [0, 0, 0, 0, 1, -1], ctildes: [4.6356947852410219e-06, -0.00014478953325923767, -9.2713895704820422e-06, 0.00028957906651847528]}
    - {mu0: 0, rank: 3, ndensity: 2, num_ms_combs: 3, mus: [0, 0, 0], ns: [1, 1, 2], ls: [0, 2, 2], ms_combs: [0, 0, 0, 0, 1, -1, 0, 2, -2], ctildes: [-6.2482888864964325e-07, 0.0009049236451896945, 1.2496577772992867e-06, -0.0018098472903793892, -1.2496577772992869e-06, 0.0018098472903793896]}
    - {mu0: 0, rank: 3, ndensity: 2, num_ms_combs: 2, mus: [0, 0, 0], ns: [1, 1, 2], ls: [1, 1, 0], ms_combs: [0, 0, 0, 1, -1, 0], ctildes: [3.6911721051504704e-05, -0.0011555302937081228, -7.3823442103009395e-05, 0.0023110605874162452]}
    - {mu0: 0, rank: 3, ndensity: 2, num_ms_combs: 4, mus: [0, 0, 0], ns: [1, 1, 2], ls: [1, 1, 2], ms_combs: [-1, 1, 0, 0, 0, 0, 0, 1, -1, 1, 1, -2], ctildes: [4.4112555194674184e-05, -0.001240528417261717, 4.4112555194674177e-05, -0.001240528417261717, -0.00015281037369772421, 0.0042973164938605972, 0.00010805325147731124, -0.0030386616337136274]}
    - {mu0: 0, rank: 3, ndensity: 2, num_ms_combs: 5, mus: [0, 0, 0], ns: [1, 1, 2], ls: [1, 2, 1], ms_combs: [0, 0, 0, 0, 1, -1, 1, -2, 1, 1, -1, 0, 1, 0, -1], ctildes: [-0.00016574559058740211, 0.0046730266912172495, 0.00028707978402789033, -0.0080939196543137575, -0.00040599212405538151, 0.011446530947888667, 0.00028707978402789033, -0.0080939196543137575, -0.00016574559058740208, 0.0046730266912172495]}
    - {mu0: 0, rank: 3, ndensity: 2, num_ms_combs: 3, mus: [0, 0, 0], ns: [1, 1, 2], ls: [2, 2, 0], ms_combs: [0, 0, 0, 1, -1, 0, 2, -2, 0], ctildes: [-0.00025414413868251088, 0.0051199726199700106, 0.00050828827736502187, -0.010239945239940023, -0.00050828827736502198, 0.010239945239940025]}
    - {mu0: 0, rank: 3, ndensity: 2, num_ms_combs: 8, mus: [0, 0, 0], ns: [1, 1, 2], ls: [2, 2, 2], ms_combs: [-2, 1, 1, -2, 2, 0, -1, 1, 0, -1, 2, -1, 0, 0, 0, 0, 1, -1, 0, 2, -2, 1, 1, -2], ctildes: [0.0043758791519549912, -0.1055208640113505, -0.0035728903661241666, 0.08615742468180719, -0.0017864451830620833, 0.043078712340903595, 0.0043758791519549912, -0.1055208640113505, 0.0017864451830620833, -0.043078712340903595, -0.0035728903661241666, 0.08615742468180719, -0.0071457807322483375, 0.17231484936361449, 0.0043758791519549912, -0.1055208640113505]}
    - {mu0: 0, rank: 3, ndensity: 2, num_ms_combs: 1, mus: [0, 0, 0], ns: [1, 2, 2], ls: [0, 0, 0], ms_combs: [0, 0, 0], ctildes: [6.4753967500691443e-06, -0.00017078484306397196]}
    - {mu0: 0, rank: 3, ndensity: 2, num_ms_combs: 2, mus: [0, 0, 0], ns: [1, 2, 2], ls: [0, 1, 1], ms_combs: [0, 0, 0, 0, 1, -1], ctildes: [-4.0007038388410358e-07, 3.7741716019278851e-05, 8.0014076776820694e-07, -7.5483432038557689e-05]}
    - {mu0: 0, rank: 3, ndensity: 2, num_ms_combs: 3, mus: [0, 0, 0], ns: [1, 2, 2], ls: [0, 2, 2], ms_combs: [0, 0, 0, 0, 1, -1, 0, 2, -2], ctildes: [1.1713522077254933e-06, -0.00042450058315910978, -2.3427044154509867e-06, 0.00084900116631821967, 2.3427044154509875e-06, -0.00084900116631821988]}
    - {mu0: 0, rank: 3, ndensity: 2, num_ms_combs: 2, mus: [0, 0, 0], ns: [1, 2, 2], ls: [1, 0, 1], ms_combs: [0, 0, 0, 1, 0, -1], ctildes: [-6.5310727396678301e-05, 0.0018511870525506346, 0.00013062145479335657, -0.0037023741051012684]}
    - {mu0: 0, rank: 3, ndensity: 2, num_ms_combs: 5, mus: [0, 0, 0], ns: [1, 2, 2], ls: [1, 1, 2], ms_combs: [0, 0, 0, 0, 1, -1, 1, -1, 0, 1, 0, -1, 1, 1, -2], ctildes: [-4.4597599699446806e-06, -8.3308358044563327e-05, 7.7245308575060377e-06, 0.00014429430882832313, -4.4597599699446806e-06, -8.330835804456334e-05, 7.7245308575060377e-06, 0.00014429430882832313, -1.0924136301654514e-05, -0.00020406296851826643]}
    - {mu0: 0, rank: 3, ndensity: 2, num_ms_combs: 3, mus: [0, 0, 0], ns: [1, 2, 2], ls: [2, 0, 2], ms_combs: [0, 0, 0, 1, 0, -1, 2, 0, -2], ctildes: [0.0008858811074105628, -0.02081106790859243, -0.0017717622148211258, 0.041622135817184859, 0.0017717622148211262, -0.041622135817184873]}
    - {mu0: 0, rank: 3, ndensity: 2, num_ms_combs: 4, mus: [0, 0, 0], ns: [1, 2, 2], ls: [2, 1, 1], ms_combs: [0, -1, 1, 0, 0, 0, 1, -1, 0, 2, -1, -1], ctildes: [5.9128590495887674e-05, -0.001673273393789214, 5.9128590495887681e-05, -0.0016732733937892142, -0.00020482744583762342, 0.0057963890659922489, 0.00014483487592490378, -0.0040986660149586775]}
    - {mu0: 0, rank: 3, ndensity: 2, num_ms_combs: 7, mus: [0, 0, 0], ns: [1, 2, 2], ls: [2, 2, 2], ms_combs: [0, -2, 2, 0, -1, 1, 0, 0, 0, 1, -2, 1, 1, -1, 0, 2, -2, 0, 2, -1, -1], ctildes: [0.0077084393841415147, -0.2069698558730077, 0.0038542196920707547, -0.10348492793650378, -0.0038542196920707547, 0.10348492793650378, -0.018881743204320511, 0.50697053902624489, 0.0077084393841415095, -0.20696985587300756, 0.015416878768283024, -0.41393971174601524, -0.0094408716021602557, 0.25348526951312245]}
    - {mu0: 0, rank: 3, ndensity: 2, num_ms_combs: 1, mus: [0, 0, 0], ns: [2, 2, 2], ls: [0, 0, 0], ms_combs: [0, 0, 0], ctildes: [-2.0713633835082561e-05, 0.00050879000125897834]}
    - {mu0: 0, rank: 3, ndensity: 2, num_ms_combs: 2, mus: [0, 0, 0], ns: [2, 2, 2], ls: [0, 1, 1], ms_combs: [0, 0, 0, 0, 1, -1], ctildes: [-6.0942925599060441e-06, 0.00014991654053641523, 1.2188585119812086e-05, -0.00029983308107283042]}
    - {mu0: 0, rank: 3, ndensity: 2, num_ms_combs: 3, mus: [0, 0, 0], ns: [2, 2, 2], ls: [0, 2, 2], ms_combs: [0, 0, 0, 0, 1, -1, 0, 2, -2], ctildes: [-0.00043676096246665657, 0.012334588370530994, 0.00087352192493331325, -0.024669176741061987, -0.00087352192493331347, 0.024669176741061994]}
    - {mu0: 0, rank: 3, ndensity: 2, num_ms_combs: 4, mus: [0, 0, 0], ns: [2, 2, 2], ls: [1, 1, 2], ms_combs: [-1, 1, 0, 0, 0, 0, 0, 1, -1, 1, 1, -2], ctildes: [-1.0008693380197579e-05, 0.00022907611391128203, -1.0008693380197578e-05, 0.000229076113911282, 3.467113090376099e-05, -0.00079354293618955248, -2.4516191773455874e-05, 0.00056111959134231637]}
